{"learner":{"attributes":{"best_iteration":"99","best_ntree_limit":"100","scikit_learn":"{\"use_label_encoder\": false, \"n_estimators\": 100, \"objective\": \"multi:softprob\", \"max_depth\": null, \"max_leaves\": null, \"max_bin\": null, \"grow_policy\": null, \"learning_rate\": null, \"verbosity\": null, \"booster\": null, \"tree_method\": null, \"gamma\": null, \"min_child_weight\": null, \"max_delta_step\": null, \"subsample\": null, \"sampling_method\": null, \"colsample_bytree\": null, \"colsample_bylevel\": null, \"colsample_bynode\": null, \"reg_alpha\": null, \"reg_lambda\": null, \"scale_pos_weight\": null, \"base_score\": null, \"missing\": NaN, \"num_parallel_tree\": null, \"random_state\": null, \"n_jobs\": null, \"monotone_constraints\": null, \"interaction_constraints\": null, \"importance_type\": null, \"gpu_id\": null, \"validate_parameters\": null, \"predictor\": null, \"enable_categorical\": false, \"max_cat_to_onehot\": null, \"eval_metric\": null, \"early_stopping_rounds\": null, \"callbacks\": null, \"classes_\": [0, 1, 2, 3, 4, 5, 6, 7, 8, 9], \"n_classes_\": 10, \"_estimator_type\": \"classifier\"}"},"feature_names":[],"feature_types":[],"gradient_booster":{"model":{"gbtree_model_param":{"num_parallel_tree":"1","num_trees":"1000","size_leaf_vector":"0"},"tree_info":[0,1,2,3,4,5,6,7,8,9,0,1,2,3,4,5,6,7,8,9,0,1,2,3,4,5,6,7,8,9,0,1,2,3,4,5,6,7,8,9,0,1,2,3,4,5,6,7,8,9,0,1,2,3,4,5,6,7,8,9,0,1,2,3,4,5,6,7,8,9,0,1,2,3,4,5,6,7,8,9,0,1,2,3,4,5,6,7,8,9,0,1,2,3,4,5,6,7,8,9,0,1,2,3,4,5,6,7,8,9,0,1,2,3,4,5,6,7,8,9,0,1,2,3,4,5,6,7,8,9,0,1,2,3,4,5,6,7,8,9,0,1,2,3,4,5,6,7,8,9,0,1,2,3,4,5,6,7,8,9,0,1,2,3,4,5,6,7,8,9,0,1,2,3,4,5,6,7,8,9,0,1,2,3,4,5,6,7,8,9,0,1,2,3,4,5,6,7,8,9,0,1,2,3,4,5,6,7,8,9,0,1,2,3,4,5,6,7,8,9,0,1,2,3,4,5,6,7,8,9,0,1,2,3,4,5,6,7,8,9,0,1,2,3,4,5,6,7,8,9,0,1,2,3,4,5,6,7,8,9,0,1,2,3,4,5,6,7,8,9,0,1,2,3,4,5,6,7,8,9,0,1,2,3,4,5,6,7,8,9,0,1,2,3,4,5,6,7,8,9,0,1,2,3,4,5,6,7,8,9,0,1,2,3,4,5,6,7,8,9,0,1,2,3,4,5,6,7,8,9,0,1,2,3,4,5,6,7,8,9,0,1,2,3,4,5,6,7,8,9,0,1,2,3,4,5,6,7,8,9,0,1,2,3,4,5,6,7,8,9,0,1,2,3,4,5,6,7,8,9,0,1,2,3,4,5,6,7,8,9,0,1,2,3,4,5,6,7,8,9,0,1,2,3,4,5,6,7,8,9,0,1,2,3,4,5,6,7,8,9,0,1,2,3,4,5,6,7,8,9,0,1,2,3,4,5,6,7,8,9,0,1,2,3,4,5,6,7,8,9,0,1,2,3,4,5,6,7,8,9,0,1,2,3,4,5,6,7,8,9,0,1,2,3,4,5,6,7,8,9,0,1,2,3,4,5,6,7,8,9,0,1,2,3,4,5,6,7,8,9,0,1,2,3,4,5,6,7,8,9,0,1,2,3,4,5,6,7,8,9,0,1,2,3,4,5,6,7,8,9,0,1,2,3,4,5,6,7,8,9,0,1,2,3,4,5,6,7,8,9,0,1,2,3,4,5,6,7,8,9,0,1,2,3,4,5,6,7,8,9,0,1,2,3,4,5,6,7,8,9,0,1,2,3,4,5,6,7,8,9,0,1,2,3,4,5,6,7,8,9,0,1,2,3,4,5,6,7,8,9,0,1,2,3,4,5,6,7,8,9,0,1,2,3,4,5,6,7,8,9,0,1,2,3,4,5,6,7,8,9,0,1,2,3,4,5,6,7,8,9,0,1,2,3,4,5,6,7,8,9,0,1,2,3,4,5,6,7,8,9,0,1,2,3,4,5,6,7,8,9,0,1,2,3,4,5,6,7,8,9,0,1,2,3,4,5,6,7,8,9,0,1,2,3,4,5,6,7,8,9,0,1,2,3,4,5,6,7,8,9,0,1,2,3,4,5,6,7,8,9,0,1,2,3,4,5,6,7,8,9,0,1,2,3,4,5,6,7,8,9,0,1,2,3,4,5,6,7,8,9,0,1,2,3,4,5,6,7,8,9,0,1,2,3,4,5,6,7,8,9,0,1,2,3,4,5,6,7,8,9,0,1,2,3,4,5,6,7,8,9,0,1,2,3,4,5,6,7,8,9,0,1,2,3,4,5,6,7,8,9,0,1,2,3,4,5,6,7,8,9,0,1,2,3,4,5,6,7,8,9,0,1,2,3,4,5,6,7,8,9,0,1,2,3,4,5,6,7,8,9,0,1,2,3,4,5,6,7,8,9,0,1,2,3,4,5,6,7,8,9,0,1,2,3,4,5,6,7,8,9,0,1,2,3,4,5,6,7,8,9,0,1,2,3,4,5,6,7,8,9,0,1,2,3,4,5,6,7,8,9,0,1,2,3,4,5,6,7,8,9,0,1,2,3,4,5,6,7,8,9,0,1,2,3,4,5,6,7,8,9,0,1,2,3,4,5,6,7,8,9,0,1,2,3,4,5,6,7,8,9,0,1,2,3,4,5,6,7,8,9,0,1,2,3,4,5,6,7,8,9,0,1,2,3,4,5,6,7,8,9],"trees":[{"base_weights":[1.4500739E-2,9.950454E-1,-1.8092108E-1,-1.03448294E-1,2.3880596E0,2.226345E-1,-3.9758432E-1,-3.5143772E-1,9.7315437E-1,-3.6912754E-1,3.05492E0,3.5105295E-2,1.9339622E0,1.612903E-1,-5.3138596E-1,2.5316453E-1,-5.0193053E-1,3.8165681E0,3.020134E-1,-4.5454547E-1,3.296703E-1,4.198473E-1,2.7099237E0,-4.1516247E-1,1.192053E0,-2.8846154E-1,6.730769E-1,1.1538461E0,4.1197186E0,-5.167598E-1,1.9230768E-1,-2.906977E-1,1.4439656E0,-5E-1,1.9230768E-1,-3.8922158E-1,2.2972972E0,2.4647886E-1,-5.111821E-1,-1.8867926E-1,2.3509934E0,3.091603E0,1.9230768E-1],"categories":[],"categories_nodes":[],"categories_segments":[],"categories_sizes":[],"default_left":[1,1,1,1,1,1,1,1,0,0,1,1,1,1,0,1,0,1,0,1,1,0,0,1,1,0,0,0,0,0,0,1,1,0,0,0,1,0,0,0,0,0,0],"id":0,"left_children":[1,3,5,7,9,11,13,15,-1,-1,17,19,21,23,-1,25,-1,27,-1,29,31,-1,-1,33,35,-1,-1,-1,-1,-1,-1,37,39,-1,-1,-1,41,-1,-1,-1,-1,-1,-1],"loss_changes":[2.7930407E1,3.7308907E1,1.0720693E1,4.213301E0,2.0838078E1,1.3770347E1,6.029091E0,1.2662443E0,0E0,0E0,1.7172905E1,5.9019012E0,3.8437996E0,1.00731735E1,0E0,9.1285294E-1,0E0,7.0318604E-1,0E0,7.191272E-1,1.8033398E1,0E0,0E0,6.671759E-1,1.1450233E1,0E0,0E0,0E0,0E0,0E0,0E0,2.1631474E0,1.4185911E1,0E0,0E0,0E0,5.591881E0,0E0,0E0,0E0,0E0,0E0,0E0],"parents":[2147483647,0,0,1,1,2,2,3,3,4,4,5,5,6,6,7,7,10,10,11,11,12,12,13,13,15,15,17,17,19,19,20,20,23,23,24,24,31,31,32,32,36,36],"right_children":[2,4,6,8,10,12,14,16,-1,-1,18,20,22,24,-1,26,-1,28,-1,30,32,-1,-1,34,36,-1,-1,-1,-1,-1,-1,38,40,-1,-1,-1,42,-1,-1,-1,-1,-1,-1],"split_conditions":[5.9400566E-2,2.1114666E-3,8.199008E4,3.8393193E-1,9.091571E-2,3.2743225E-3,2.052378E3,4.052036E-2,2.9194632E-1,-1.1073827E-1,1.4340413E0,9.563011E-2,1.937727E-1,2.6217878E-3,-1.594158E-1,8.997931E-2,-1.5057917E-1,1.4720667E3,9.060402E-2,9.0678066E-2,1.419696E3,1.259542E-1,8.1297714E-1,1.3601929E-1,8.723801E-2,-8.6538464E-2,2.0192309E-1,3.4615386E-1,1.2359157E0,-1.5502796E-1,5.7692308E-2,4.146012E-1,4.635547E3,-1.5E-1,5.7692308E-2,-1.16766475E-1,4.8062616E5,7.394366E-2,-1.5335464E-1,-5.6603782E-2,7.0529807E-1,9.2748094E-1,5.7692308E-2],"split_indices":[10,3,7,0,1,3,6,10,0,0,13,2,2,3,0,1,0,6,0,1,14,0,0,2,1,0,0,0,0,0,0,0,8,0,0,0,5,0,0,0,0,0,0],"split_type":[0,0,0,0,0,0,0,0,0,0,0,0,0,0,0,0,0,0,0,0,0,0,0,0,0,0,0,0,0,0,0,0,0,0,0,0,0,0,0,0,0,0,0],"sum_hessian":[1.4381999E2,2.322E1,1.206E2,1.3499999E1,9.719999E0,4.212E1,7.8479996E1,1.15199995E1,1.9799999E0,1.9799999E0,7.74E0,3.8879997E1,3.2399998E0,1.5119999E1,6.3359997E1,2.1599998E0,9.36E0,5.7599998E0,1.9799999E0,1.44E1,2.448E1,1.6199999E0,1.6199999E0,1.008E1,5.04E0,1.0799999E0,1.0799999E0,1.0799999E0,4.68E0,1.332E1,1.0799999E0,1.6199999E1,8.28E0,9E0,1.0799999E0,2.34E0,2.6999998E0,4.68E0,1.15199995E1,3.2399998E0,5.04E0,1.6199999E0,1.0799999E0],"tree_param":{"num_deleted":"0","num_feature":"15","num_nodes":"43","size_leaf_vector":"0"}},{"base_weights":[3.521611E-2,3.057769E0,-4.4774935E-1,4.222065E0,2.4495676E-1,3.8461536E-1,-5.083305E-1,4.3874426E0,1.1538461E0,-4.4747084E-1,1.4285715E0,1.4622642E0,-4.6075088E-1,3.8167927E-2,-5.162903E-1,-2.8846154E-1,2.1518986E0,-3.2194483E-1,-5.402751E-1,2.5961537E0,6.730769E-1,1.1538461E0,-5.162659E-1,-5.5E-1,-1.3304609E-8],"categories":[],"categories_nodes":[],"categories_segments":[],"categories_sizes":[],"default_left":[1,1,1,1,1,1,1,0,0,0,0,1,0,0,1,0,1,1,1,0,0,0,0,0,0],"id":1,"left_children":[1,3,5,7,9,11,13,-1,-1,-1,-1,15,-1,-1,17,-1,19,21,23,-1,-1,-1,-1,-1,-1],"loss_changes":[2.127757E2,6.47267E1,6.53603E0,2.1123962E0,6.3270416E0,8.963911E0,5.3144073E-1,0E0,0E0,0E0,0E0,5.73995E0,0E0,0E0,3.6686897E-1,0E0,3.2862663E-1,4.960442E0,5.3487206E-1,0E0,0E0,0E0,0E0,0E0,0E0],"parents":[2147483647,0,0,1,1,2,2,3,3,4,4,5,5,6,6,11,11,14,14,16,16,17,17,18,18],"right_children":[2,4,6,8,10,12,14,-1,-1,-1,-1,16,-1,-1,18,-1,20,22,24,-1,-1,-1,-1,-1,-1],"split_conditions":[-6.6557717E0,2.2683188E5,4.712795E5,9.0859815E-2,6.564422E3,3.5011685E-1,-6.1654854E0,1.3162328E0,3.4615386E-1,-1.3424125E-1,4.2857146E-1,1.0742317E3,-1.3822527E-1,1.1450378E-2,3.1163555E-1,-8.6538464E-2,9.599605E4,8.258651E-2,4.984033E3,7.7884614E-1,2.0192309E-1,3.4615386E-1,-1.5487978E-1,-1.65E-1,-3.991383E-9],"split_indices":[13,5,9,1,14,0,13,0,0,0,0,4,0,0,0,0,5,1,14,0,0,0,0,0,0],"split_type":[0,0,0,0,0,0,0,0,0,0,0,0,0,0,0,0,0,0,0,0,0,0,0,0,0],"sum_hessian":[1.4381999E2,1.908E1,1.2474E2,1.3139999E1,5.9399996E0,8.099999E0,1.1663999E2,1.2059999E1,1.0799999E0,4.14E0,1.8E0,3.2399998E0,4.8599997E0,1.6199999E0,1.1502E2,1.0799999E0,2.1599998E0,1.4219999E1,1.00799995E2,1.0799999E0,1.0799999E0,1.0799999E0,1.3139999E1,9.899999E1,1.8E0],"tree_param":{"num_deleted":"0","num_feature":"15","num_nodes":"25","size_leaf_vector":"0"}},{"base_weights":[7.5956155E-3,3.7406483E-1,-4.4041455E-1,-3.702197E-1,6.905687E-1,1.0714285E0,-4.9984333E-1,-5.254605E-1,8.426964E-2,1.4231927E0,4.1854456E-2,-5.1458806E-1,8.1967205E-2,-4.298643E-1,6.756757E-1,2.2935778E-1,2.1188476E0,5.0706035E-1,-4.0048546E-1,-2.747253E-1,-5.453206E-1,1.460177E0,-3.2786888E-1,-4.5112783E-1,7.446808E-1,2.9477613E0,5.331412E-1,9.6330273E-1,-4.577465E-1,6.730769E-1,-5.194805E-1,2.0958082E-1,-4.7337282E-1,1.3043479E0,-3.6912754E-1,3.2029598E0,5.7522124E-1,1.4864864E0,-4.2452833E-1,-2.8169015E-1,1.9453377E0,-3.0973452E-1,6.730769E-1],"categories":[],"categories_nodes":[],"categories_segments":[],"categories_sizes":[],"default_left":[1,1,1,1,1,0,1,0,1,1,1,1,0,0,1,1,1,1,1,1,0,0,0,0,1,1,1,1,0,0,0,1,0,0,0,0,0,0,0,0,0,0,0],"id":2,"left_children":[1,3,5,7,9,-1,11,-1,13,15,17,19,-1,-1,21,23,25,27,29,31,-1,-1,-1,-1,33,35,37,39,-1,-1,-1,41,-1,-1,-1,-1,-1,-1,-1,-1,-1,-1,-1],"loss_changes":[2.3941568E1,1.9148289E1,6.431308E0,1.7785292E0,2.684986E1,0E0,5.896673E-1,0E0,2.4553695E0,2.157203E1,6.5945697E0,3.1002617E-1,0E0,0E0,3.3916903E0,4.1582484E0,2.0326561E1,7.2990427E0,2.4549475E0,9.746863E-1,0E0,0E0,0E0,0E0,4.583191E0,4.6482162E0,6.9672036E0,1.387461E1,0E0,0E0,0E0,1.0124153E0,0E0,0E0,0E0,0E0,0E0,0E0,0E0,0E0,0E0,0E0,0E0],"parents":[2147483647,0,0,1,1,2,2,3,3,4,4,6,6,8,8,9,9,10,10,11,11,14,14,15,15,16,16,17,17,18,18,19,19,24,24,25,25,26,26,27,27,31,31],"right_children":[2,4,6,8,10,-1,12,-1,14,16,18,20,-1,-1,22,24,26,28,30,32,-1,-1,-1,-1,34,36,38,40,-1,-1,-1,42,-1,-1,-1,-1,-1,-1,-1,-1,-1,-1,-1],"split_conditions":[3.9230096E-1,6.9412574E-2,3.8077667E2,3.2078868E-1,8.860726E-2,3.2142857E-1,2.1148866E-1,-1.5763815E-1,1.358451E5,1.0164554E6,2.3109505E-3,4.0341753E-1,2.4590163E-2,-1.289593E-1,2.2851528E6,5.9019456E5,4.593546E3,3.5124052E-1,1.4628328E3,8.2695976E-2,-1.6359618E-1,4.380531E-1,-9.8360665E-2,-1.3533835E-1,3.7423086E-1,3.776927E-3,1.447662E-3,9.54211E4,-1.3732396E-1,2.0192309E-1,-1.5584417E-1,3.9844134E-1,-1.4201185E-1,3.9130437E-1,-1.1073827E-1,9.6088797E-1,1.7256638E-1,4.4594595E-1,-1.2735851E-1,-8.450705E-2,5.836013E-1,-9.292036E-2,2.0192309E-1],"split_indices":[0,2,14,0,1,0,10,0,7,9,3,0,0,0,9,9,8,0,6,1,0,0,0,0,0,3,3,7,0,0,0,0,0,0,0,0,0,0,0,0,0,0,0],"split_type":[0,0,0,0,0,0,0,0,0,0,0,0,0,0,0,0,0,0,0,0,0,0,0,0,0,0,0,0,0,0,0,0,0,0,0,0,0,0,0,0,0,0,0],"sum_hessian":[1.4381999E2,7.92E1,6.4619995E1,2.358E1,5.562E1,1.8E0,6.2819996E1,1.746E1,6.12E0,2.556E1,3.006E1,6.1379997E1,1.4399999E0,3.4199998E0,2.6999998E0,9.9E0,1.5659999E1,1.4579999E1,1.548E1,8.099999E0,5.328E1,1.26E0,1.4399999E0,4.3199997E0,5.58E0,9.719999E0,5.9399996E0,9.9E0,4.68E0,1.0799999E0,1.44E1,2.34E0,5.7599998E0,3.6E0,1.9799999E0,8.46E0,1.26E0,2.6999998E0,3.2399998E0,4.68E0,5.22E0,1.26E0,1.0799999E0],"tree_param":{"num_deleted":"0","num_feature":"15","num_nodes":"43","size_leaf_vector":"0"}},{"base_weights":[7.5956155E-3,-4.664957E-1,3.6193672E-1,-5.4298645E-1,-2.65902E-1,-2.752294E-1,7.158754E-1,6.730769E-1,-3.5911605E-1,-5.913274E-2,-4.6012273E-1,1.1340206E0,-3.349876E-1,2.4886876E-1,-5.177112E-1,-2.3338051E-1,1.1538461E0,3.8167927E-2,-5.177112E-1,1.3668851E0,-3.0546626E-1,1.882845E-1,-5.105349E-1,-3.6912754E-1,9.0163934E-1,-3.971487E-1,1.1278194E-1,7.1810883E-1,2.4506578E0,1.9230768E-1,-4.4747084E-1,6.375839E-1,-3.5714287E-1,1.9230768E-1,-4.9199086E-1,7.1428573E-1,-3.9772728E-1,1.110414E0,-2.1390377E-1,2.4886876E-1,3.283753E0],"categories":[],"categories_nodes":[],"categories_segments":[],"categories_sizes":[],"default_left":[1,1,1,0,1,1,1,0,1,1,1,1,1,1,0,1,0,0,0,1,1,1,0,0,0,1,1,1,1,0,0,0,0,0,0,0,0,0,0,0,0],"id":3,"left_children":[1,3,5,-1,7,9,11,-1,13,15,17,19,21,23,-1,25,-1,-1,-1,27,29,31,-1,-1,-1,33,35,37,39,-1,-1,-1,-1,-1,-1,-1,-1,-1,-1,-1,-1],"loss_changes":[2.4497156E1,8.1274986E-1,1.9014225E1,0E0,1.9204619E0,1.1922133E0,2.407305E1,0E0,1.8741062E0,3.4861667E0,4.8750138E-1,1.3423504E1,1.5768926E0,2.1158912E0,0E0,8.463934E-1,0E0,0E0,0E0,2.1851135E1,5.2572E-1,1.3990963E0,0E0,0E0,0E0,6.436039E-1,1.9177203E0,8.435023E0,2.1487862E1,0E0,0E0,0E0,0E0,0E0,0E0,0E0,0E0,0E0,0E0,0E0,0E0],"parents":[2147483647,0,0,1,1,2,2,4,4,5,5,6,6,8,8,9,9,10,10,11,11,12,12,13,13,15,15,19,19,20,20,21,21,25,25,26,26,27,27,28,28],"right_children":[2,4,6,-1,8,10,12,-1,14,16,18,20,22,24,-1,26,-1,-1,-1,28,30,32,-1,-1,-1,34,36,38,40,-1,-1,-1,-1,-1,-1,-1,-1,-1,-1,-1,-1],"split_conditions":[8.9869425E-2,3.8136667E3,2.84901E5,-1.6289595E-1,1.7771901E3,1.2532242E-1,9.300629E5,2.0192309E-1,1.05490766E5,1.1877194E-1,7.121192E-2,1.3977693E2,8.672426E-2,1.2773701E-3,-1.5531337E-1,2.2848442E3,3.4615386E-1,1.1450378E-2,-1.5531337E-1,1.2025035E2,2.1667793E3,3.7564668E-3,-1.5316047E-1,-1.1073827E-1,2.704918E-1,9.372564E-2,4.6865696E-1,1.9041374E-1,1.5181296E-3,5.7692308E-2,-1.3424125E-1,1.9127518E-1,-1.07142866E-1,5.7692308E-2,-1.4759727E-1,2.1428573E-1,-1.1931819E-1,3.3312422E-1,-6.4171135E-2,7.466063E-2,9.851259E-1],"split_indices":[10,8,5,0,4,2,5,0,7,2,1,12,1,11,0,6,0,0,0,12,4,3,0,0,0,10,0,2,3,0,0,0,0,0,0,0,0,0,0,0,0],"split_type":[0,0,0,0,0,0,0,0,0,0,0,0,0,0,0,0,0,0,0,0,0,0,0,0,0,0,0,0,0,0,0,0,0,0,0,0,0,0,0,0,0],"sum_hessian":[1.4381999E2,6.1379997E1,8.2439995E1,4.3199997E1,1.8179998E1,2.9519999E1,5.292E1,1.0799999E0,1.7099998E1,1.4219999E1,1.5299999E1,3.78E1,1.5119999E1,3.4199998E0,1.3679999E1,1.3139999E1,1.0799999E0,1.6199999E0,1.3679999E1,3.2579998E1,5.22E0,3.7799997E0,1.1339999E1,1.9799999E0,1.4399999E0,8.82E0,4.3199997E0,2.1419998E1,1.116E1,1.0799999E0,4.14E0,1.9799999E0,1.8E0,1.0799999E0,7.74E0,1.8E0,2.52E0,1.494E1,6.4799995E0,3.4199998E0,7.74E0],"tree_param":{"num_deleted":"0","num_feature":"15","num_nodes":"41","size_leaf_vector":"0"}},{"base_weights":[-3.3835128E-2,-3.9088923E-1,7.597173E-1,-4.7614047E-1,9.375E-1,2.2881355E0,2.1461715E-1,-5.149578E-1,-2.3364505E-2,-3.9772728E-1,1.9072165E0,3.4149857E0,5.631399E-1,8.7765956E-1,-2.8375736E-1,-5.3654367E-1,-1.775148E-1,1.1832061E0,-4.7550434E-1,2.7099237E0,1.3274336E-1,-3.7974685E-1,1.2162162E0,1.3761467E-1,2.2762647E0,-5.1575935E-1,1.8716577E-1,5.7522124E-1,-4.5454547E-1,2.3451328E0,-3.2786888E-1,-1.9348271E-1,1.6346154E0,3.108108E0,8.1967205E-2,-4.5112783E-1,1.2025317E0,-3.7757438E-1,6.730769E-1,1.6346154E0,1.9230768E-1],"categories":[],"categories_nodes":[],"categories_segments":[],"categories_sizes":[],"default_left":[1,1,1,1,1,1,1,1,1,0,1,0,1,1,1,0,1,0,0,0,0,0,1,1,1,0,1,0,0,0,0,1,0,0,0,0,1,0,0,0,0],"id":4,"left_children":[1,3,5,7,9,11,13,15,17,-1,19,-1,21,23,25,-1,27,-1,-1,-1,-1,-1,29,31,33,-1,35,-1,-1,-1,-1,37,-1,-1,-1,-1,39,-1,-1,-1,-1],"loss_changes":[4.133043E1,1.1832215E1,3.723355E1,1.6601067E0,9.045219E0,2.1013859E1,1.1642733E1,5.426903E-1,5.23243E0,0E0,5.1668797E0,0E0,4.0703073E0,1.52536125E1,2.3297067E0,0E0,1.6711335E0,0E0,0E0,0E0,0E0,0E0,7.218525E0,5.7188873E0,9.12734E0,0E0,5.390295E0,0E0,0E0,0E0,0E0,1.8206861E0,0E0,0E0,0E0,0E0,1.0649948E0,0E0,0E0,0E0,0E0],"parents":[2147483647,0,0,1,1,2,2,3,3,4,4,5,5,6,6,7,7,8,8,10,10,12,12,13,13,14,14,16,16,22,22,23,23,24,24,26,26,31,31,36,36],"right_children":[2,4,6,8,10,12,14,16,18,-1,20,-1,22,24,26,-1,28,-1,-1,-1,-1,-1,30,32,34,-1,36,-1,-1,-1,-1,38,-1,-1,-1,-1,40,-1,-1,-1,-1],"split_conditions":[4.22394E-1,7.551735E-3,1.05512695E2,9.598881E-2,3.915356E-1,1.3672677E-1,1.2728563E-1,4.509183E0,2.6206462E3,-1.1931819E-1,3.189621E3,1.0244957E0,3.1151143E-3,4.7353184E-1,1.2255619E3,-1.609631E-1,2.0132262E-1,3.5496184E-1,-1.426513E-1,8.1297714E-1,3.982301E-2,-1.13924064E-1,2.935914E3,6.604557E-3,1.3977693E2,-1.5472782E-1,1.7443788E-3,1.7256638E-1,-1.3636364E-1,7.0353985E-1,-9.8360665E-2,9.125674E-2,4.9038464E-1,9.324325E-1,2.4590163E-2,-1.3533835E-1,8.6196646E-2,-1.1327232E-1,2.0192309E-1,4.9038464E-1,5.7692308E-2],"split_indices":[0,3,12,1,0,10,10,13,14,0,4,0,11,0,14,0,2,0,0,0,0,0,6,3,12,0,3,0,0,0,0,1,0,0,0,0,1,0,0,0,0],"split_type":[0,0,0,0,0,0,0,0,0,0,0,0,0,0,0,0,0,0,0,0,0,0,0,0,0,0,0,0,0,0,0,0,0,0,0,0,0,0,0,0,0],"sum_hessian":[1.4381999E2,9.953999E1,4.428E1,9.414E1,5.3999996E0,1.0799999E1,3.348E1,8.6579994E1,7.5599995E0,2.52E0,2.8799999E0,5.9399996E0,4.8599997E0,1.4039999E1,1.9439999E1,8.082E1,5.7599998E0,1.6199999E0,5.9399996E0,1.6199999E0,1.26E0,2.1599998E0,2.6999998E0,9.9E0,4.14E0,1.2959999E1,6.4799995E0,1.26E0,4.5E0,1.26E0,1.4399999E0,8.82E0,1.0799999E0,2.6999998E0,1.4399999E0,4.3199997E0,2.1599998E0,7.74E0,1.0799999E0,1.0799999E0,1.0799999E0],"tree_param":{"num_deleted":"0","num_feature":"15","num_nodes":"41","size_leaf_vector":"0"}},{"base_weights":[6.904918E-4,7.148001E-1,-4.3863538E-1,1.4807483E-2,1.0859978E0,-1.6862172E-1,-5.4687506E-1,-2.1052633E-1,1.9026549E0,1.8962172E0,1.8007183E-2,1.8156423E-1,-5.1575935E-1,3.642384E-1,-4.441261E-1,2.2385428E0,2.173913E-1,1.3054187E0,-3.6764708E-1,-1.9685042E-1,1.9465649E0,1.2025317E0,-4.1237116E-1,-5.124224E-1,1.9230768E-1,7.1005917E-1,2.9573712E0,1.1538461E0,-3.9772728E-1,1.3274336E-1,1.7857143E0,-5.054152E-1,1.7045453E-1,6.375839E-1,-4.1044778E-1,1.6346154E0,1.9230768E-1,-4.2452833E-1,1.875E0,1.3274336E-1,3.3E0,6.730769E-1,-3.2786888E-1,-4.9792534E-1,1.9230768E-1],"categories":[],"categories_nodes":[],"categories_segments":[],"categories_sizes":[],"default_left":[1,1,1,1,1,1,0,1,0,1,1,1,0,1,1,1,1,1,1,1,0,1,0,0,0,1,1,0,0,0,0,0,1,0,1,0,0,0,0,0,0,0,0,0,0],"id":5,"left_children":[1,3,5,7,9,11,-1,13,-1,15,17,19,-1,21,23,25,27,29,31,33,-1,35,-1,-1,-1,37,39,-1,-1,-1,-1,-1,41,-1,43,-1,-1,-1,-1,-1,-1,-1,-1,-1,-1],"loss_changes":[4.5747456E1,1.4415192E1,2.5463257E0,9.019079E0,3.135918E1,3.4098744E0,0E0,2.712801E0,0E0,1.1363785E1,8.751552E0,9.94754E0,0E0,4.4280896E0,7.0532894E-1,1.6600266E1,3.1086576E0,2.0496745E0,1.0943624E0,2.5252538E0,0E0,1.0649948E0,0E0,0E0,0E0,9.730867E0,1.0459366E1,0E0,0E0,0E0,0E0,0E0,1.10233E0,0E0,6.609944E-1,0E0,0E0,0E0,0E0,0E0,0E0,0E0,0E0,0E0,0E0],"parents":[2147483647,0,0,1,1,2,2,3,3,4,4,5,5,7,7,9,9,10,10,11,11,13,13,14,14,15,15,16,16,17,17,18,18,19,19,21,21,25,25,26,26,32,32,34,34],"right_children":[2,4,6,8,10,12,-1,14,-1,16,18,20,-1,22,24,26,28,30,32,34,-1,36,-1,-1,-1,38,40,-1,-1,-1,-1,-1,42,-1,44,-1,-1,-1,-1,-1,-1,-1,-1,-1,-1],"split_conditions":[-1.0954427E0,8.644284E-2,3.8307363E-1,2.7576108E3,3.375257E5,3.68405E5,-1.6406253E-1,6.5374926E-2,5.707965E-1,2.3882296E-3,5.3814866E-2,2.6408755E3,-1.5472782E-1,7.7082754E3,2.2579088E5,-6.480523E0,9.175405E-2,2.3585965E6,4.870092E-3,3.1649566E-1,5.839695E-1,8.3963774E-2,-1.23711355E-1,-1.5372673E-1,5.7692308E-2,8.4046425E5,1.9955398E3,3.4615386E-1,-1.1931819E-1,3.982301E-2,5.357143E-1,-1.5162456E-1,3.3162722E-1,1.9127518E-1,3.7967467E-1,4.9038464E-1,5.7692308E-2,-1.2735851E-1,5.625E-1,3.982301E-2,9.9E-1,2.0192309E-1,-9.8360665E-2,-1.4937761E-1,5.7692308E-2],"split_indices":[13,1,0,6,5,5,0,10,0,3,2,6,0,14,7,13,1,9,3,0,0,1,0,0,0,9,14,0,0,0,0,0,0,0,0,0,0,0,0,0,0,0,0,0,0],"split_type":[0,0,0,0,0,0,0,0,0,0,0,0,0,0,0,0,0,0,0,0,0,0,0,0,0,0,0,0,0,0,0,0,0,0,0,0,0,0,0,0,0,0,0,0,0],"sum_hessian":[1.4381999E2,5.4539997E1,8.928E1,1.9259998E1,3.528E1,2.6279999E1,6.2999996E1,1.8E1,1.26E0,1.9619999E1,1.5659999E1,1.332E1,1.2959999E1,5.04E0,1.2959999E1,1.6019999E1,3.6E0,3.06E0,1.2599999E1,1.17E1,1.6199999E0,2.1599998E0,2.8799999E0,1.1879999E1,1.0799999E0,5.7599998E0,1.0259999E1,1.0799999E0,2.52E0,1.26E0,1.8E0,1.008E1,2.52E0,1.9799999E0,9.719999E0,1.0799999E0,1.0799999E0,3.2399998E0,2.52E0,1.26E0,9E0,1.0799999E0,1.4399999E0,8.639999E0,1.0799999E0],"tree_param":{"num_deleted":"0","num_feature":"15","num_nodes":"45","size_leaf_vector":"0"}},{"base_weights":[-6.2146317E-3,2.5834293E0,-3.5658675E-1,5.298013E-1,3.3792546E0,-4.7706425E-1,3.033268E-1,1.3068181E0,-3.9772728E-1,4.034749E0,-3.355706E-2,-4.94811E-1,6.730769E-1,1.5561224E0,-4.411765E-1,1.3274336E-1,1.9026549E0,4.24569E0,1.1538461E0,1.9230768E-1,-5.035567E-1,2.6086957E0,4.7169797E-2,1.9230768E-1,-5.111821E-1,-2.5700936E-1,-5.197422E-1,6.730769E-1,3.0113637E0,-3.7974685E-1,6.730769E-1,-4.7945207E-1,5.7522124E-1,-2.9801327E-1,-5.284381E-1],"categories":[],"categories_nodes":[],"categories_segments":[],"categories_sizes":[],"default_left":[1,1,1,1,1,1,1,1,0,1,0,1,0,1,1,0,0,0,0,0,1,1,1,0,0,1,1,0,0,0,0,0,0,0,0],"id":6,"left_children":[1,3,5,7,9,11,13,15,-1,17,-1,19,-1,21,23,-1,-1,-1,-1,-1,25,27,29,-1,-1,31,33,-1,-1,-1,-1,-1,-1,-1,-1],"loss_changes":[1.3232205E2,2.6614288E1,1.0356293E1,4.8728175E0,2.7740967E1,2.5578766E0,1.9751125E1,2.2098746E0,0E0,1.3968811E0,0E0,7.4536896E-1,0E0,1.2329088E1,7.0142984E-1,0E0,0E0,0E0,0E0,0E0,2.9276276E-1,1.5584145E0,1.3885698E0,0E0,0E0,1.8604493E0,3.3943176E-2,0E0,0E0,0E0,0E0,0E0,0E0,0E0,0E0],"parents":[2147483647,0,0,1,1,2,2,3,3,4,4,5,5,6,6,7,7,9,9,11,11,13,13,14,14,20,20,21,21,22,22,25,25,26,26],"right_children":[2,4,6,8,10,12,14,16,-1,18,-1,20,-1,22,24,-1,-1,-1,-1,-1,26,28,30,-1,-1,32,34,-1,-1,-1,-1,-1,-1,-1,-1],"split_conditions":[7.818305E-2,4.562199E-1,1.3848004E-1,1.5801641E-3,3.9759338E5,6.7723007E0,2.504648E3,4.3220448E-1,-1.1931819E-1,2.8817754E-3,-1.0067118E-2,2.2565895E4,2.0192309E-1,8.5171275E-2,7.500825E-2,3.982301E-2,5.707965E-1,1.273707E0,3.4615386E-1,5.7692308E-2,4.440899E4,-1.1772075E0,4.423278E5,5.7692308E-2,-1.5335464E-1,1.1899693E-1,9.069403E1,2.0192309E-1,9.034092E-1,-1.13924064E-1,2.0192309E-1,-1.4383563E-1,1.7256638E-1,-8.940399E-2,-1.5853143E-1],"split_indices":[1,0,10,11,5,13,6,0,0,11,0,7,0,1,2,0,0,0,0,0,7,13,5,0,0,10,12,0,0,0,0,0,0,0,0],"split_type":[0,0,0,0,0,0,0,0,0,0,0,0,0,0,0,0,0,0,0,0,0,0,0,0,0,0,0,0,0,0,0,0,0,0,0],"sum_hessian":[1.4381999E2,1.638E1,1.27439995E2,5.04E0,1.1339999E1,1.0799999E2,1.9439999E1,2.52E0,2.52E0,9.36E0,1.9799999E0,1.0692E2,1.0799999E0,6.8399997E0,1.2599999E1,1.26E0,1.26E0,8.28E0,1.0799999E0,1.0799999E0,1.0584E2,3.6E0,3.2399998E0,1.0799999E0,1.15199995E1,7.5599995E0,9.828E1,1.0799999E0,2.52E0,2.1599998E0,1.0799999E0,6.2999997E0,1.26E0,5.04E0,9.324E1],"tree_param":{"num_deleted":"0","num_feature":"15","num_nodes":"35","size_leaf_vector":"0"}},{"base_weights":[7.5956155E-3,-3.9800197E-1,2.327189E0,-5.007887E-1,5.91216E-2,1.5086205E-1,3.6587183E0,-4.0322598E-2,-5.190809E-1,-4.9199086E-1,3.5759094E-1,-4.6075088E-1,9.276018E-1,9.0163934E-1,3.914858E0,-4.1237116E-1,6.730769E-1,-5.2889633E-1,3.8167927E-2,1.3043479E0,-2.4311204E-2,-3.2786888E-1,1.6442953E0,4.0825686E0,1.1538461E0,-5.388256E-1,-1.546392E-1,1.7065868E0,1.3274336E-1,4.5454544E-1,-3.571429E-1,4.287169E0,1.1538461E0,1.9230768E-1,-3.5714287E-1,2.1153846E0,5.7522124E-1,1.1077844E0,-3.7974685E-1,-4.7337282E-1,1.9230768E-1],"categories":[],"categories_nodes":[],"categories_segments":[],"categories_sizes":[],"default_left":[1,1,1,1,1,1,1,1,1,0,1,0,1,0,1,0,0,1,0,1,1,0,0,1,0,0,1,1,0,1,1,0,0,0,0,0,0,0,0,0,0],"id":7,"left_children":[1,3,5,7,9,11,13,15,17,-1,19,-1,21,-1,23,-1,-1,25,-1,27,29,-1,-1,31,-1,-1,33,35,-1,37,39,-1,-1,-1,-1,-1,-1,-1,-1,-1,-1],"loss_changes":[1.3717598E2,5.861538E0,6.2331238E1,8.334904E-1,4.0710588E0,4.8359876E0,5.9473877E0,1.594037E0,5.533695E-1,0E0,5.7951117E0,0E0,4.5161743E0,0E0,8.3670044E-1,0E0,0E0,2.7290154E-1,0E0,1.9412808E0,2.12907E0,0E0,0E0,1.5847168E0,0E0,0E0,3.4128243E-1,3.2793427E-1,0E0,3.4181347E0,5.9171593E-1,0E0,0E0,0E0,0E0,0E0,0E0,0E0,0E0,0E0,0E0],"parents":[2147483647,0,0,1,1,2,2,3,3,4,4,5,5,6,6,7,7,8,8,10,10,12,12,14,14,17,17,19,19,20,20,23,23,26,26,27,27,29,29,30,30],"right_children":[2,4,6,8,10,12,14,16,18,-1,20,-1,22,-1,24,-1,-1,26,-1,28,30,-1,-1,32,-1,-1,34,36,-1,38,40,-1,-1,-1,-1,-1,-1,-1,-1,-1,-1],"split_conditions":[2.8482666E3,2.743409E6,3.6879797E-3,6.329647E2,1.82395E3,2.392899E0,6.3898447E3,2.3106182E-1,2.7313828E3,-1.4759727E-1,3.5493916E-1,-1.3822527E-1,9.76216E4,2.704918E-1,4.7560513E-1,-1.23711355E-1,2.0192309E-1,2.630103E6,1.1450378E-2,2.6802197E3,8.586823E-2,-9.8360665E-2,4.932886E-1,9.829934E-2,3.4615386E-1,-1.6164768E-1,3.5523546E-1,9.1554694E-2,3.982301E-2,3.617803E6,1.1413451E-1,1.2861507E0,3.4615386E-1,5.7692308E-2,-1.07142866E-1,6.346154E-1,1.7256638E-1,3.3233532E-1,-1.13924064E-1,-1.4201185E-1,5.7692308E-2],"split_indices":[6,9,3,14,4,13,8,2,6,0,0,0,7,0,0,0,0,9,0,6,1,0,0,1,0,0,0,1,0,9,10,0,0,0,0,0,0,0,0,0,0],"split_type":[0,0,0,0,0,0,0,0,0,0,0,0,0,0,0,0,0,0,0,0,0,0,0,0,0,0,0,0,0,0,0,0,0,0,0,0,0,0,0,0,0],"sum_hessian":[1.4381999E2,1.23119995E2,2.0699999E1,1.00439995E2,2.2679998E1,8.28E0,1.2419999E1,3.9599998E0,9.6479996E1,7.74E0,1.494E1,4.8599997E0,3.4199998E0,1.4399999E0,1.098E1,2.8799999E0,1.0799999E0,9.485999E1,1.6199999E0,3.6E0,1.1339999E1,1.4399999E0,1.9799999E0,9.9E0,1.0799999E0,9.1979996E1,2.8799999E0,2.34E0,1.26E0,4.5E0,6.8399997E0,8.82E0,1.0799999E0,1.0799999E0,1.8E0,1.0799999E0,1.26E0,2.34E0,2.1599998E0,5.7599998E0,1.0799999E0],"tree_param":{"num_deleted":"0","num_feature":"15","num_nodes":"41","size_leaf_vector":"0"}},{"base_weights":[-6.2146317E-3,-2.909563E-1,8.047493E-1,-4.2415285E-1,2.812202E-1,2.2212908E-1,1.675532E0,-5.318501E-1,-1.0291597E-1,-3.971487E-1,8.05921E-1,-4.8302874E-1,5.232558E-1,-1.7241381E-1,2.1619365E0,-5.466238E-1,-2.0361993E-1,8.6466163E-1,-3.6842108E-1,-4.9199086E-1,1.9230768E-1,1.5625E0,-2.9585816E-2,-6.706411E-2,2.0711298E0,-3.6912754E-1,1.9230768E-1,5.9270513E-1,3.4375E0,1.9230768E-1,-3.8922158E-1,-8.982038E-2,1.6442953E0,-4.5571247E-1,2.2624418E-2,-2.8846154E-1,1.9924812E0,3.6082473E-1,-4.1237116E-1,-2.8541228E-1,3.629032E-1,1.9230768E-1,2.5675676E0,-4.1871923E-1,1.5909091E0,-3.0973452E-1,1.9230768E-1,8.1967205E-2,-5.162659E-1,6.730769E-1,-3.8922158E-1,1.9230768E-1,2.4056604E0,-3.5714287E-1,1.1538461E0,1.3513511E-1,-4.7337282E-1,1.0714285E0,-3.7974685E-1,1.3274336E-1,2.3451328E0],"categories":[],"categories_nodes":[],"categories_segments":[],"categories_sizes":[],"default_left":[1,1,1,1,1,1,1,1,1,1,1,0,1,1,1,0,1,1,1,0,0,1,1,1,1,0,0,1,0,0,0,1,0,1,1,0,1,1,0,1,1,0,0,0,1,0,0,0,0,0,0,0,0,0,0,0,0,0,0,0,0],"id":8,"left_children":[1,3,5,7,9,11,13,15,17,19,21,-1,23,25,27,-1,29,31,33,-1,-1,35,37,39,41,-1,-1,43,-1,-1,-1,45,-1,47,49,-1,51,53,-1,55,57,-1,-1,-1,59,-1,-1,-1,-1,-1,-1,-1,-1,-1,-1,-1,-1,-1,-1,-1,-1],"loss_changes":[3.367529E1,8.344072E0,1.8855835E1,2.9876633E0,7.7877073E0,5.3192244E0,1.3891441E1,2.0690155E-1,6.3093925E0,6.436039E-1,7.7328906E0,0E0,1.5855239E1,3.622737E-1,2.194239E1,0E0,3.996532E-1,4.1065493E0,6.5887356E-1,0E0,0E0,5.668378E0,1.1590313E0,1.3634812E0,3.964632E0,0E0,0E0,7.3093634E0,0E0,0E0,0E0,2.667911E-1,0E0,5.4957604E-1,1.4460332E0,0E0,3.494358E0,2.621219E0,0E0,8.1174743E-1,3.0167563E0,0E0,0E0,0E0,3.5599346E0,0E0,0E0,0E0,0E0,0E0,0E0,0E0,0E0,0E0,0E0,0E0,0E0,0E0,0E0,0E0,0E0],"parents":[2147483647,0,0,1,1,2,2,3,3,4,4,5,5,6,6,7,7,8,8,9,9,10,10,12,12,13,13,14,14,16,16,17,17,18,18,21,21,22,22,23,23,24,24,27,27,31,31,33,33,34,34,36,36,37,37,39,39,40,40,44,44],"right_children":[2,4,6,8,10,12,14,16,18,20,22,-1,24,26,28,-1,30,32,34,-1,-1,36,38,40,42,-1,-1,44,-1,-1,-1,46,-1,48,50,-1,52,54,-1,56,58,-1,-1,-1,60,-1,-1,-1,-1,-1,-1,-1,-1,-1,-1,-1,-1,-1,-1,-1,-1],"split_conditions":[2.5569975E6,1.3977693E2,1.2612305E2,4.2463156E5,1.3031848E-3,3.6186573E-1,-4.570493E0,1.8883138E6,2.1645557E3,8.969164E-2,2.6652538E-3,-1.4490862E-1,2.2334653E3,3.1274676E-1,1.879075E3,-1.6398716E-1,2.8822438E5,3.8094993E3,9.237507E-2,-1.4759727E-1,5.7692308E-2,1.4604458E3,3.905543E-1,9.292561E-2,8.6603686E-2,-1.1073827E-1,5.7692308E-2,4.153899E-1,1.03125E0,5.7692308E-2,-1.16766475E-1,3.7089318E-1,4.932886E-1,2.6876205E-3,1.5780884E-1,-8.6538464E-2,2.2172508E5,3.379547E-1,-1.23711355E-1,1.4013854E-1,1.3359515E3,5.7692308E-2,7.702703E-1,-1.2561578E-1,1.4777689E2,-9.292036E-2,5.7692308E-2,2.4590163E-2,-1.5487978E-1,2.0192309E-1,-1.16766475E-1,5.7692308E-2,7.2169816E-1,-1.07142866E-1,3.4615386E-1,4.0540535E-2,-1.4201185E-1,3.2142857E-1,-1.13924064E-1,3.982301E-2,7.0353985E-1],"split_indices":[9,12,12,5,3,0,13,9,6,1,3,0,14,0,14,0,5,8,1,0,0,4,0,1,1,0,0,0,0,0,0,0,0,11,2,0,5,0,0,2,14,0,0,0,12,0,0,0,0,0,0,0,0,0,0,0,0,0,0,0,0],"split_type":[0,0,0,0,0,0,0,0,0,0,0,0,0,0,0,0,0,0,0,0,0,0,0,0,0,0,0,0,0,0,0,0,0,0,0,0,0,0,0,0,0,0,0,0,0,0,0,0,0,0,0,0,0,0,0,0,0,0,0,0,0],"sum_hessian":[1.4381999E2,1.0692E2,3.6899998E1,8.6939995E1,1.998E1,2.2859999E1,1.4039999E1,6.4619995E1,2.232E1,8.82E0,1.116E1,6.66E0,1.6199999E1,3.06E0,1.098E1,6.1199997E1,3.4199998E0,4.3199997E0,1.8E1,7.74E0,1.0799999E0,5.3999996E0,5.7599998E0,1.2419999E1,3.7799997E0,1.9799999E0,1.0799999E0,5.58E0,5.3999996E0,1.0799999E0,2.34E0,2.34E0,1.9799999E0,1.4579999E1,3.4199998E0,1.0799999E0,4.3199997E0,2.8799999E0,2.8799999E0,8.46E0,3.9599998E0,1.0799999E0,2.6999998E0,3.06E0,2.52E0,1.26E0,1.0799999E0,1.4399999E0,1.3139999E1,1.0799999E0,2.34E0,1.0799999E0,3.2399998E0,1.8E0,1.0799999E0,2.6999998E0,5.7599998E0,1.8E0,2.1599998E0,1.26E0,1.26E0],"tree_param":{"num_deleted":"0","num_feature":"15","num_nodes":"61","size_leaf_vector":"0"}},{"base_weights":[-2.6930002E-2,3.615604E-1,-1.840432E-1,7.6033634E-1,-4.482759E-1,-3.5636835E-2,-4.1749507E-1,1.0304054E0,-4.6075088E-1,-5.14158E-1,1.9230768E-1,1.5189873E0,-1.13818556E-1,-5.360897E-1,-1.18110254E-1,2.4895399E0,6.281407E-1,2.1153846E0,1.9230768E-1,1.7734908E-1,-4.0973115E-1,6.066946E-1,-4.9327356E-1,3.0113637E0,5.7522124E-1,-2.9801327E-1,9.6231496E-1,4.4429235E-2,1.1340206E0,6.730769E-1,-4.708223E-1,1.0227273E0,-3.0973452E-1,-4.435484E-1,1.9230768E-1,1.2204725E0,-3.7974685E-1,-1.2924074E-1,8.181818E-1,2.1311476E0,-3.2786888E-1,1.9230768E-1,-5.020633E-1,1.460177E0,1.3274336E-1],"categories":[],"categories_nodes":[],"categories_segments":[],"categories_sizes":[],"default_left":[1,1,1,1,1,1,1,1,0,0,0,1,1,0,1,1,1,0,0,1,1,1,0,0,0,1,1,1,1,0,1,1,0,0,0,0,0,0,0,0,0,0,0,0,0],"id":9,"left_children":[1,3,5,7,9,11,13,15,-1,-1,-1,17,19,-1,21,23,25,-1,-1,27,29,31,-1,-1,-1,33,35,37,39,-1,41,43,-1,-1,-1,-1,-1,-1,-1,-1,-1,-1,-1,-1,-1],"loss_changes":[8.905915E0,1.3917374E1,3.5806568E0,9.886621E0,7.1081996E-1,8.017286E0,1.3654213E0,1.2335388E1,0E0,0E0,0E0,2.0934758E0,5.4473367E0,0E0,3.7526522E0,3.0427208E0,6.445768E0,0E0,0E0,4.0365586E0,2.3834257E0,2.1392183E0,0E0,0E0,0E0,5.163057E-1,5.6119156E0,4.0376306E0,6.354571E0,0E0,7.213702E-1,1.176589E0,0E0,0E0,0E0,0E0,0E0,0E0,0E0,0E0,0E0,0E0,0E0,0E0,0E0],"parents":[2147483647,0,0,1,1,2,2,3,3,4,4,5,5,6,6,7,7,11,11,12,12,14,14,15,15,16,16,19,19,20,20,21,21,25,25,26,26,27,27,28,28,30,30,31,31],"right_children":[2,4,6,8,10,12,14,16,-1,-1,-1,18,20,-1,22,24,26,-1,-1,28,30,32,-1,-1,-1,34,36,38,40,-1,42,44,-1,-1,-1,-1,-1,-1,-1,-1,-1,-1,-1,-1,-1],"split_conditions":[8.293188E-2,4.6225762E-1,2.9565361E3,1.5139985E-1,2.834934E3,-4.693015E0,3.2928264E-1,7.7736124E-2,-1.3822527E-1,-1.542474E-1,5.7692308E-2,9.779323E-2,5.2195722E5,-1.6082692E-1,1.306264E-3,4.4598243E-1,3.211653E-1,6.346154E-1,5.7692308E-2,3.5412982E-3,3.238262E-1,3.6572367E-1,-1.4798208E-1,9.034092E-1,1.7256638E-1,1.2211587E-1,3.0980133E-3,1.656447E5,4.117357E-1,2.0192309E-1,1.755693E3,4.0011165E3,-9.292036E-2,-1.3306452E-1,5.7692308E-2,3.6614174E-1,-1.13924064E-1,-3.877222E-2,2.4545455E-1,6.3934433E-1,-9.8360665E-2,5.7692308E-2,-1.5061899E-1,4.380531E-1,3.982301E-2],"split_indices":[1,0,14,10,6,13,0,1,0,0,0,2,5,0,3,0,0,0,0,11,0,0,0,0,0,2,3,7,0,0,4,8,0,0,0,0,0,0,0,0,0,0,0,0,0],"split_type":[0,0,0,0,0,0,0,0,0,0,0,0,0,0,0,0,0,0,0,0,0,0,0,0,0,0,0,0,0,0,0,0,0,0,0,0,0,0,0,0,0,0,0,0,0],"sum_hessian":[1.4381999E2,4.1039997E1,1.0278E2,2.7539999E1,1.3499999E1,6.3539997E1,3.9239998E1,2.2679998E1,4.8599997E0,1.2419999E1,1.0799999E0,2.1599998E0,6.1379997E1,2.7539999E1,1.17E1,3.7799997E0,1.89E1,1.0799999E0,1.0799999E0,3.114E1,3.0239998E1,3.7799997E0,7.9199996E0,2.52E0,1.26E0,5.04E0,1.386E1,2.8259998E1,2.8799999E0,1.0799999E0,2.9159998E1,2.52E0,1.26E0,3.9599998E0,1.0799999E0,1.17E1,2.1599998E0,2.3759998E1,4.5E0,1.4399999E0,1.4399999E0,1.0799999E0,2.8079998E1,1.26E0,1.26E0],"tree_param":{"num_deleted":"0","num_feature":"15","num_nodes":"45","size_leaf_vector":"0"}},{"base_weights":[1.5656332E-2,2.4078438E-1,-4.6989083E-1,-7.1837E-2,8.9856297E-1,4.6868202E-1,-5.123653E-1,-1.660643E-1,1.1494467E0,1.3465948E0,5.0704107E-3,-2.563537E-1,-5.3256226E-1,-4.8466834E-1,5.1156208E-2,1.633617E0,-2.8501025E-1,-3.5250175E-1,1.5236353E0,8.4300303E-1,-3.7735364E-1,2.0633975E-1,-4.2118073E-1,-5.2234745E-1,1.5931988E-1,6.846799E-1,-1.6695848E-1,7.612707E-1,1.7540607E0,3.4946557E-2,1.3731278E0,1.7794235E-1,-4.7720265E-1,-2.502771E-1,1.3955112E0,2.2167538E-1,-3.7641692E-1,-2.8549567E-1,1.0296934E0],"categories":[],"categories_nodes":[],"categories_segments":[],"categories_sizes":[],"default_left":[1,1,1,1,1,0,1,1,1,1,1,1,0,1,1,0,0,0,1,1,1,0,0,0,0,1,1,1,0,0,0,0,0,0,0,0,0,0,0],"id":10,"left_children":[1,3,5,7,9,-1,11,13,15,17,19,21,-1,23,25,-1,-1,-1,27,29,31,-1,-1,-1,-1,33,35,37,-1,-1,-1,-1,-1,-1,-1,-1,-1,-1,-1],"loss_changes":[1.5520752E1,2.0003603E1,2.033677E0,7.8610387E0,1.2527521E1,0E0,8.850193E-2,4.367644E0,3.8689995E0,6.8090897E0,3.9907062E0,4.766469E-1,0E0,7.028122E-1,5.3951383E0,0E0,0E0,0E0,2.01482E0,1.6229715E0,5.5954015E-1,0E0,0E0,0E0,0E0,6.9844728E0,2.4630826E0,2.0340881E0,0E0,0E0,0E0,0E0,0E0,0E0,0E0,0E0,0E0,0E0,0E0],"parents":[2147483647,0,0,1,1,2,2,3,3,4,4,6,6,7,7,8,8,9,9,10,10,11,11,13,13,14,14,18,18,19,19,20,20,25,25,26,26,27,27],"right_children":[2,4,6,8,10,-1,12,14,16,18,20,22,-1,24,26,-1,-1,-1,28,30,32,-1,-1,-1,-1,34,36,38,-1,-1,-1,-1,-1,-1,-1,-1,-1,-1,-1],"split_conditions":[2.3757021E3,9.104329E-2,5.52093E5,2.3377548E-1,1.6214033E3,1.4060462E-1,9.566879E5,1.0029535E-1,4.299821E-1,1.2659916E-3,1.3858229E6,1.2710248E-1,-1.5976869E-1,3.0233572E6,9.873917E-4,4.9008512E-1,-8.550308E-2,-1.0575053E-1,7.443944E-4,4.6840005E3,-5.2669735E0,6.1901927E-2,-1.2635422E-1,-1.5670425E-1,4.7795966E-2,7.988454E-2,2.052378E3,9.4487275E5,5.2621824E-1,1.0483967E-2,4.1193837E-1,5.3382706E-2,-1.431608E-1,-7.508314E-2,4.1865337E-1,6.6502616E-2,-1.1292508E-1,-8.56487E-2,3.0890802E-1],"split_indices":[6,1,9,2,4,0,9,2,0,3,9,10,0,9,3,0,0,0,11,8,13,0,0,0,0,1,6,9,0,0,0,0,0,0,0,0,0,0,0],"split_type":[0,0,0,0,0,0,0,0,0,0,0,0,0,0,0,0,0,0,0,0,0,0,0,0,0,0,0,0,0,0,0,0,0,0,0,0,0,0,0],"sum_hessian":[1.3995297E2,9.596301E1,4.3989964E1,6.565165E1,3.0311363E1,1.4701033E0,4.251986E1,6.1751293E1,3.900354E0,1.985046E1,1.0460904E1,4.110388E0,3.8409473E1,2.4534523E1,3.721677E1,2.8122864E0,1.0880674E0,1.7796538E0,1.8070807E1,2.9007275E0,7.560176E0,1.0134971E0,3.0968907E0,2.3356827E1,1.1776971E0,8.983812E0,2.823296E1,5.193113E0,1.2877694E1,1.5714006E0,1.329327E0,1.0330276E0,6.5271487E0,4.16003E0,4.823782E0,9.8670635E0,1.8365896E1,1.0469036E0,4.146209E0],"tree_param":{"num_deleted":"0","num_feature":"15","num_nodes":"39","size_leaf_vector":"0"}},{"base_weights":[3.8284643E-3,1.1405994E0,-4.5478883E-1,1.3360441E0,-1.5801023E-1,1.09572075E-1,-4.9855873E-1,1.4464489E0,-1.2797879E-1,6.604529E-1,-4.535569E-1,7.563368E-1,-4.395299E-1,-2.5757095E-1,-5.270889E-1,1.511057E0,4.224786E-1,1.7741397E-1,-3.261244E-1,1.3686842E0,-3.1461757E-1,1.0584222E0,-4.9589834E-1,-5.385393E-1,5.400079E-2,4.4400033E-1,1.5426975E0,1.0095544E0,-3.360894E-1],"categories":[],"categories_nodes":[],"categories_segments":[],"categories_sizes":[],"default_left":[1,1,1,1,1,1,1,1,1,0,0,1,0,1,1,1,1,0,0,0,0,0,0,0,0,0,0,0,0],"id":11,"left_children":[1,3,5,7,9,11,13,15,17,-1,-1,19,-1,21,23,25,27,-1,-1,-1,-1,-1,-1,-1,-1,-1,-1,-1,-1],"loss_changes":[7.592752E1,1.0836681E1,2.6181679E0,6.083847E0,1.8406109E0,3.2762663E0,5.276413E-1,1.6120148E0,2.6830956E-1,0E0,0E0,3.1676922E0,0E0,4.3417296E0,5.9677315E-1,3.822403E-1,1.8565623E0,0E0,0E0,0E0,0E0,0E0,0E0,0E0,0E0,0E0,0E0,0E0,0E0],"parents":[2147483647,0,0,1,1,2,2,3,3,4,4,5,5,6,6,7,7,8,8,11,11,13,13,14,14,15,15,16,16],"right_children":[2,4,6,8,10,12,14,16,18,-1,-1,20,-1,22,24,26,28,-1,-1,-1,-1,-1,-1,-1,-1,-1,-1,-1,-1],"split_conditions":[-5.58197E0,9.0975046E-2,4.712795E5,2.3892554E-3,-1.0798407E1,1.9635817E3,3.1163555E-1,7.44679E-2,1.8299059E3,1.9813588E-1,-1.3606708E-1,3.2569993E3,-1.3185897E-1,8.224368E-2,4.984033E3,1.9884762E-1,1.4043944E5,5.3224195E-2,-9.783732E-2,4.1060528E-1,-9.4385274E-2,3.1752667E-1,-1.4876951E-1,-1.6156179E-1,1.6200239E-2,1.3320011E-1,4.628093E-1,3.0286634E-1,-1.0082682E-1],"split_indices":[13,1,9,11,13,4,0,2,4,0,0,14,0,1,14,0,5,0,0,0,0,0,0,0,0,0,0,0,0],"split_type":[0,0,0,0,0,0,0,0,0,0,0,0,0,0,0,0,0,0,0,0,0,0,0,0,0,0,0,0,0],"sum_hessian":[1.4364339E2,4.086489E1,1.027785E2,3.549409E1,5.370797E0,7.289225E0,9.548927E1,3.3016273E1,2.477818E0,1.0973107E0,4.273486E0,3.1736755E0,4.1155496E0,1.1169664E1,8.431961E1,3.0609278E1,2.4069972E0,1.0162094E0,1.4616086E0,1.8422914E0,1.3313843E0,1.1850466E0,9.984618E0,8.276201E1,1.5576044E0,1.314405E0,2.9294872E1,1.1703577E0,1.2366395E0],"tree_param":{"num_deleted":"0","num_feature":"15","num_nodes":"29","size_leaf_vector":"0"}},{"base_weights":[7.7571487E-3,2.8014177E-1,-4.1283414E-1,-3.043E-1,4.7709906E-1,7.853772E-1,-4.7981703E-1,-5.124222E-1,1.7494786E-1,7.916044E-1,-8.527717E-2,1.4965725E0,-3.087057E-1,-4.9686563E-1,9.032756E-2,1.008905E0,-2.799166E-1,-4.5390576E-1,9.671452E-1,3.476387E-1,-4.4151625E-1,-2.492099E-1,-5.3232515E-1,-4.331734E-1,2.0526084E-1,1.2067708E0,1.7604955E-1,8.8123494E-1,-1.7047735E-1,2.4492541E-2,-5.0826305E-1,2.1868098E-1,-4.597016E-1,1.3105452E0,-3.4510833E-1,-3.0270258E-1,6.302865E-1,-5.983706E-2,1.4080886E0,6.947458E-1,-4.532126E-1,-3.0298358E-1,6.6455156E-1],"categories":[],"categories_nodes":[],"categories_segments":[],"categories_sizes":[],"default_left":[1,1,1,1,1,1,1,0,1,1,1,0,0,1,0,0,1,0,1,1,1,1,0,0,0,1,1,1,1,0,0,1,0,0,0,0,0,0,0,0,0,0,0],"id":12,"left_children":[1,3,5,7,9,11,13,-1,15,17,19,-1,-1,21,-1,-1,23,-1,25,27,29,31,-1,-1,-1,33,35,37,39,-1,-1,41,-1,-1,-1,-1,-1,-1,-1,-1,-1,-1,-1],"loss_changes":[1.638115E1,1.0133032E1,4.888335E0,2.3319523E0,1.1614802E1,3.0727227E0,5.683708E-1,0E0,3.1472793E0,9.614805E0,3.903961E0,0E0,0E0,3.2790947E-1,0E0,0E0,5.1049197E-1,0E0,6.821083E0,3.3399162E0,4.4111156E-1,9.326466E-1,0E0,0E0,0E0,5.0109177E0,2.3212433E0,2.9826884E0,1.9518069E0,0E0,0E0,9.6873474E-1,0E0,0E0,0E0,0E0,0E0,0E0,0E0,0E0,0E0,0E0,0E0],"parents":[2147483647,0,0,1,1,2,2,3,3,4,4,5,5,6,6,8,8,9,9,10,10,13,13,16,16,18,18,19,19,20,20,21,21,25,25,26,26,27,27,28,28,31,31],"right_children":[2,4,6,8,10,12,14,-1,16,18,20,-1,-1,22,-1,-1,24,-1,26,28,30,32,-1,-1,-1,34,36,38,40,-1,-1,42,-1,-1,-1,-1,-1,-1,-1,-1,-1,-1,-1],"split_conditions":[3.9230096E-1,7.1713805E-2,3.8077667E2,1.358451E5,9.013006E-2,4.354962E-1,2.1148866E-1,-1.5372667E-1,1.7454653E5,5.9019456E5,3.160269E-1,4.4897178E-1,-9.261171E-2,4.0341753E-1,2.709827E-2,3.0267152E-1,5.9950255E-2,-1.3617173E-1,2.905816E-3,2.1247135E-3,7.662994E2,1.4927343E-3,-1.5969755E-1,-1.2995203E-1,6.1578255E-2,1.3024515E-1,1.6486879E-1,1.4698035E3,2.2837644E3,7.3477626E-3,-1.5247892E-1,1.2612305E2,-1.3791049E-1,3.931636E-1,-1.035325E-1,-9.0810776E-2,1.8908596E-1,-1.7951118E-2,4.2242658E-1,2.0842375E-1,-1.3596378E-1,-9.089508E-2,1.9936548E-1],"split_indices":[0,2,14,7,1,0,10,0,7,9,0,0,0,0,0,0,2,0,3,3,14,3,0,0,0,10,2,4,8,0,0,12,0,0,0,0,0,0,0,0,0,0,0],"split_type":[0,0,0,0,0,0,0,0,0,0,0,0,0,0,0,0,0,0,0,0,0,0,0,0,0,0,0,0,0,0,0,0,0,0,0,0,0,0,0,0,0,0,0],"sum_hessian":[1.4097911E2,8.576783E1,5.521129E1,2.1481031E1,6.42868E1,2.3552248E0,5.2856064E1,1.4928733E1,6.5522976E0,4.0968063E1,2.3318733E1,1.2044246E0,1.1508001E0,5.144623E1,1.409832E0,1.882624E0,4.6696734E0,4.8648524E0,3.610321E1,1.0537404E1,1.2781329E1,7.4490056E0,4.3997227E1,3.6301694E0,1.0395043E0,2.730653E1,8.796681E0,4.845887E0,5.6915164E0,1.6806345E0,1.1100695E1,2.2992406E0,5.149765E0,2.5740751E1,1.565778E0,4.445188E0,4.351493E0,2.0573862E0,2.7885013E0,1.0428791E0,4.6486373E0,1.2072437E0,1.0919968E0],"tree_param":{"num_deleted":"0","num_feature":"15","num_nodes":"43","size_leaf_vector":"0"}},{"base_weights":[9.349313E-3,-4.744831E-1,2.6041237E-1,-4.935563E-1,1.6874558E-1,4.5170674E-1,-2.682119E-1,-6.3878484E-2,-5.1287E-1,-3.9568117E-1,6.8975145E-1,1.0867438E-1,-4.228171E-1,-2.954488E-1,2.2041494E-1,-5.323749E-1,-2.5894883E-1,2.0899507E-1,-4.5195237E-1,8.7040627E-1,-3.7117633E-1,-4.4474432E-1,8.37608E-1,2.0410284E-1,-4.7112268E-1,-4.174199E-1,2.0200668E-1,-5.161743E-1,1.893096E-1,9.163116E-2,1.1364181E0,1.8274312E-1,-4.7769302E-1,-2.838511E-1,1.3669993E0,1.0435457E-2,-5.2340394E-1,1.6813173E0,-1.8325952E-1,-3.921338E-1,1.2587224E0],"categories":[],"categories_nodes":[],"categories_segments":[],"categories_sizes":[],"default_left":[1,1,1,1,0,1,1,1,1,1,1,1,1,0,0,0,1,0,1,1,1,0,1,0,1,0,0,0,0,1,1,0,0,0,0,0,0,0,0,0,0],"id":13,"left_children":[1,3,5,7,-1,9,11,13,15,17,19,21,23,-1,-1,-1,25,-1,27,29,31,-1,33,-1,35,-1,-1,-1,-1,37,39,-1,-1,-1,-1,-1,-1,-1,-1,-1,-1],"loss_changes":[1.7370783E1,6.827297E-1,9.639234E0,3.631544E-1,0E0,1.4289415E1,1.539824E0,2.7542666E-1,8.75597E-2,6.3459516E-1,1.0790066E1,3.7019377E0,6.529076E-1,0E0,0E0,0E0,4.6371868E-1,0E0,7.088363E-1,9.625202E0,5.9749806E-1,0E0,2.7085507E0,0E0,4.4281507E-1,0E0,0E0,0E0,0E0,6.008775E0,7.021698E0,0E0,0E0,0E0,0E0,0E0,0E0,0E0,0E0,0E0,0E0],"parents":[2147483647,0,0,1,1,2,2,3,3,5,5,6,6,7,7,8,8,9,9,10,10,11,11,12,12,16,16,18,18,19,19,20,20,22,22,24,24,29,29,30,30],"right_children":[2,4,6,8,-1,10,12,14,16,18,20,22,24,-1,-1,-1,26,-1,28,30,32,-1,34,-1,36,-1,-1,-1,-1,38,40,-1,-1,-1,-1,-1,-1,-1,-1,-1,-1],"split_conditions":[4.161412E3,2.3107524E3,1.9066232E-1,9.069403E1,5.0623674E-2,8.3718356E-4,3.05556E-3,-1.6698711E0,1.6302046E-1,6.879696E-4,1.3977693E2,1.9300226E-3,7.567926E-2,-8.863465E-2,6.6124484E-2,-1.5971248E-1,1.8193838E3,6.269853E-2,3.4296348E3,1.05512695E2,2.122459E3,-1.334233E-1,3.1399212E5,6.1230857E-2,2.2118254E3,-1.2522598E-1,6.0602006E-2,-1.548523E-1,5.679288E-2,6.654977E2,3.2326072E-1,5.4822937E-2,-1.4330791E-1,-8.515533E-2,4.100998E-1,3.1306373E-3,-1.570212E-1,5.0439525E-1,-5.4977857E-2,-1.17640145E-1,3.7761673E-1],"split_indices":[8,6,2,12,0,3,3,13,2,11,12,3,1,0,0,0,4,0,14,12,6,0,5,0,6,0,0,0,0,14,0,0,0,0,0,0,0,0,0,0,0],"split_type":[0,0,0,0,0,0,0,0,0,0,0,0,0,0,0,0,0,0,0,0,0,0,0,0,0,0,0,0,0,0,0,0,0,0,0,0,0,0,0,0,0],"sum_hessian":[1.4098463E2,4.7860706E1,9.312393E1,4.6708385E1,1.1523198E0,6.84862E1,2.4637737E1,2.194483E0,4.45139E1,1.4874383E1,5.3611816E1,7.2532744E0,1.7384462E1,1.1877588E0,1.0067242E0,4.0320107E1,4.1937966E0,1.0352944E0,1.3839089E1,4.596455E1,7.6472645E0,4.344629E0,2.9086456E0,1.0129493E0,1.6371513E1,3.1911597E0,1.0026368E0,1.275659E1,1.082499E0,1.2045285E1,3.3919266E1,1.1179506E0,6.529314E0,1.0814741E0,1.8271716E0,1.6817217E0,1.4689792E1,1.021524E0,1.1023761E1,2.3494747E0,3.156979E1],"tree_param":{"num_deleted":"0","num_feature":"15","num_nodes":"41","size_leaf_vector":"0"}},{"base_weights":[-2.0914273E-2,-3.605745E-1,5.4831713E-1,-4.5306975E-1,6.81104E-1,-5.047861E-1,8.476386E-1,-4.9747366E-1,8.922764E-3,-3.8084775E-1,1.2097601E0,-3.491254E-2,1.1093242E0,-5.2246684E-1,-1.437463E-1,8.901343E-1,-4.533705E-1,1.4695626E0,1.6307385E-1,-4.56564E-1,3.9161244E-1,1.4319184E0,2.8257453E-1,-5.363718E-1,-2.9950535E-1,4.6226886E-1,-4.306453E-1,-3.9200014E-1,9.9035317E-1,1.5198859E0,2.923038E-1,-4.7785304E-2,1.4654716E0,2.1675654E-1,-4.4176665E-1,1.3527007E0,1.4601938E-1,7.3769045E-1,1.7011856E0,-3.4937957E-1,9.2516404E-1],"categories":[],"categories_nodes":[],"categories_segments":[],"categories_sizes":[],"default_left":[1,1,1,1,1,0,1,1,1,0,1,1,1,1,1,0,0,0,0,0,1,1,1,0,1,0,0,0,1,1,0,1,0,0,0,0,0,0,0,0,0],"id":14,"left_children":[1,3,5,7,9,-1,11,13,15,-1,17,19,21,23,25,-1,-1,-1,-1,-1,27,29,31,-1,33,-1,-1,-1,35,37,-1,39,-1,-1,-1,-1,-1,-1,-1,-1,-1],"loss_changes":[2.699488E1,8.730161E0,1.6879568E1,1.6635952E0,4.6868234E0,0E0,9.510904E0,5.773792E-1,3.692839E0,0E0,1.1921282E0,2.0400643E0,8.040447E0,5.188942E-2,1.2857574E0,0E0,0E0,0E0,0E0,0E0,3.0546687E0,1.8144608E0,4.0299554E0,0E0,5.576318E-1,0E0,0E0,0E0,8.748698E-1,1.6775017E0,0E0,2.9317486E0,0E0,0E0,0E0,0E0,0E0,0E0,0E0,0E0,0E0],"parents":[2147483647,0,0,1,1,2,2,3,3,4,4,6,6,7,7,8,8,10,10,11,11,12,12,13,13,14,14,20,20,21,21,22,22,24,24,28,28,29,29,31,31],"right_children":[2,4,6,8,10,-1,12,14,16,-1,18,20,22,24,26,-1,-1,-1,-1,-1,28,30,32,-1,34,-1,-1,-1,36,38,-1,40,-1,-1,-1,-1,-1,-1,-1,-1,-1],"split_conditions":[4.22394E-1,7.551735E-3,1.3697336E-3,9.598881E-2,3.915356E-1,-1.5143582E-1,8.946179E2,4.509183E0,2.6206462E3,-1.1425433E-1,3.189621E3,4.6806034E-1,1.2025035E2,8.5357294E5,2.0132262E-1,2.6704028E-1,-1.3601115E-1,4.4086882E-1,4.892216E-2,-1.3696921E-1,7.836668E-2,1.4708978E6,1.6688232E2,-1.6091156E-1,9.430166E5,1.3868067E-1,-1.2919359E-1,-1.17600046E-1,8.524464E5,8.230992E-2,8.769114E-2,1.9994137E-1,4.396415E-1,6.502696E-2,-1.3253E-1,4.0581024E-1,4.3805815E-2,2.2130714E-1,5.103557E-1,-1.04813874E-1,2.7754924E-1],"split_indices":[0,3,3,1,0,0,14,13,14,0,4,0,12,5,2,0,0,0,0,0,1,5,12,0,5,0,0,0,5,1,0,2,0,0,0,0,0,0,0,0,0],"split_type":[0,0,0,0,0,0,0,0,0,0,0,0,0,0,0,0,0,0,0,0,0,0,0,0,0,0,0,0,0,0,0,0,0,0,0,0,0,0,0,0,0],"sum_hessian":[1.375975E2,8.640577E1,5.1191742E1,7.98781E1,6.5276713E0,1.117794E1,4.00138E1,7.280383E1,7.0742626E0,2.2624693E0,4.2652025E0,9.349297E0,3.0664503E1,6.755368E1,5.250152E0,2.115767E0,4.9584956E0,3.093369E0,1.1718333E0,4.6660924E0,4.6832047E0,2.1531153E1,9.13335E0,6.226487E1,5.2888117E0,1.4905055E0,3.7596467E0,2.1780002E0,2.5052042E0,1.9678476E1,1.8526773E0,7.8895555E0,1.2437942E0,1.0294217E0,4.25939E0,1.331637E0,1.1735673E0,4.656683E0,1.5021793E1,6.5119057E0,1.37765E0],"tree_param":{"num_deleted":"0","num_feature":"15","num_nodes":"41","size_leaf_vector":"0"}},{"base_weights":[4.7186813E-3,4.8807907E-1,-4.3271574E-1,6.788887E-1,2.9717332E-2,-1.7820783E-1,-5.344863E-1,6.1541505E-2,9.9416417E-1,6.081216E-1,-5.107069E-1,2.7930027E-1,-3.8961357E-1,-1.7318948E-1,1.0889328E0,1.2819158E0,2.657563E-1,-3.8263735E-1,9.264021E-1,8.962204E-1,-4.223707E-1,1.5481453E-1,-5.0595546E-1,6.2684447E-1,-3.4749934E-1,1.5697562E0,1.3184108E-1,-3.4928828E-1,1.4212792E0,-1.4484735E-1,1.3881254E0,-3.5799377E-2,1.216559E0,1.3305762E0,4.7479823E-2,7.1673274E-1,-3.4090564E-1,-4.874004E-1,7.344451E-2,1.4816443E0,1.5978041E-1,6.66801E-1,-4.8167053E-1,1.4934102E0,9.104495E-2],"categories":[],"categories_nodes":[],"categories_segments":[],"categories_sizes":[],"default_left":[1,1,1,1,1,1,0,1,1,1,0,1,1,1,1,1,1,0,1,1,0,1,0,0,1,0,0,0,1,1,0,0,1,0,0,0,0,0,0,0,0,0,0,0,0],"id":15,"left_children":[1,3,5,7,9,11,-1,13,15,17,-1,19,21,23,25,27,29,-1,31,33,-1,35,-1,-1,37,-1,-1,-1,39,41,-1,-1,43,-1,-1,-1,-1,-1,-1,-1,-1,-1,-1,-1,-1],"loss_changes":[2.9973532E1,5.8693886E0,1.8323593E0,9.184196E0,6.824487E0,2.3100152E0,0E0,4.318203E0,6.2360287E0,3.6725504E0,0E0,3.744192E0,1.0907114E0,2.2820182E0,1.321775E0,5.550102E0,4.877221E0,0E0,2.3485847E0,1.5801969E0,0E0,1.2415335E0,0E0,0E0,7.89433E-1,0E0,0E0,0E0,1.3379059E0,2.59969E0,0E0,0E0,1.849513E0,0E0,0E0,0E0,0E0,0E0,0E0,0E0,0E0,0E0,0E0,0E0,0E0],"parents":[2147483647,0,0,1,1,2,2,3,3,4,4,5,5,7,7,8,8,9,9,11,11,12,12,13,13,14,14,15,15,16,16,18,18,19,19,21,21,24,24,28,28,29,29,32,32],"right_children":[2,4,6,8,10,12,-1,14,16,18,-1,20,22,24,26,28,30,-1,32,34,-1,36,-1,-1,38,-1,-1,-1,40,42,-1,-1,44,-1,-1,-1,-1,-1,-1,-1,-1,-1,-1,-1,-1],"split_conditions":[-8.9070857E-1,1.6701373E-3,3.8307363E-1,8.644284E-2,2.9491064E-1,1.2443998E3,-1.603459E-1,2.7063008E3,3.22687E5,-7.2753735E0,-1.5321207E-1,2.1425076E-3,3.1649566E-1,1.287367E3,1.1490049E2,-1.116676E1,2.6619956E3,-1.1479121E-1,2.4285889E3,2.38483E-3,-1.2671122E-1,2.974562E3,-1.5178664E-1,1.8805335E-1,1.1636345E6,4.7092685E-1,3.9552324E-2,-1.0478649E-1,3.5789987E-1,5.540849E-4,4.1643766E-1,-1.0739814E-2,1.9395468E-3,3.9917287E-1,1.4243947E-2,2.1501984E-1,-1.022717E-1,-1.4622013E-1,2.2033352E-2,4.444933E-1,4.7934126E-2,2.000403E-1,-1.4450116E-1,4.4802308E-1,2.7313486E-2],"split_indices":[13,3,0,1,0,14,0,6,5,13,0,11,0,6,12,13,6,0,8,3,0,8,0,0,9,0,0,0,0,3,0,0,11,0,0,0,0,0,0,0,0,0,0,0,0],"split_type":[0,0,0,0,0,0,0,0,0,0,0,0,0,0,0,0,0,0,0,0,0,0,0,0,0,0,0,0,0,0,0,0,0,0,0,0,0,0,0,0,0,0,0,0,0],"sum_hessian":[1.397612E2,6.63402E1,7.3421E1,4.6501255E1,1.9838947E1,2.175847E1,5.1662525E1,1.6123907E1,3.0377348E1,9.522238E0,1.031671E1,6.7751193E0,1.4983351E1,1.3801962E1,2.3219454E0,2.1230516E1,9.14683E0,2.2660782E0,7.2561593E0,3.4577477E0,3.3173716E0,2.5798974E0,1.2403454E1,2.0047169E0,1.1797245E1,1.1194333E0,1.202512E0,1.5525149E0,1.9678003E1,7.334534E0,1.8122957E0,1.8842709E0,5.3718886E0,1.9116999E0,1.5460477E0,1.0002422E0,1.5796552E0,8.735965E0,3.0612807E0,1.8612831E1,1.0651716E0,1.8637497E0,5.4707847E0,4.0490446E0,1.3228437E0],"tree_param":{"num_deleted":"0","num_feature":"15","num_nodes":"45","size_leaf_vector":"0"}},{"base_weights":[-1.4501106E-2,1.0479375E0,-3.7489748E-1,1.1882478E0,-4.0909943E-1,-4.7373843E-1,1.7236887E-1,-1.5670902E-1,1.322959E0,-4.8383692E-1,1.7265554E-1,1.0876305E0,-4.0797856E-1,2.2174256E-1,-3.6394185E-1,1.3020143E-1,1.4320744E0,-3.6144105E-1,-5.361625E-1,-3.6508167E-1,1.7255768E0,2.0263252E-1,-4.9190488E-1,-3.598E-1,7.0247984E-1,1.4848183E0,1.267304E-1,7.135977E-1,-4.2418644E-1,2.0364302E-1,-4.8795408E-1],"categories":[],"categories_nodes":[],"categories_segments":[],"categories_sizes":[],"default_left":[1,1,1,1,0,1,1,1,1,1,0,1,1,0,0,1,1,1,0,0,0,0,0,0,0,0,0,0,1,0,0],"id":16,"left_children":[1,3,5,7,-1,9,11,13,15,17,-1,19,21,-1,-1,23,25,27,-1,-1,-1,-1,-1,-1,-1,-1,-1,-1,29,-1,-1],"loss_changes":[5.452987E1,7.8614044E0,5.8322697E0,6.215866E0,0E0,6.730728E-1,9.471807E0,3.876142E-1,3.7505226E0,3.7740898E-1,0E0,6.994952E0,6.699735E-1,0E0,0E0,1.2721772E0,1.7130661E0,2.311387E0,0E0,0E0,0E0,0E0,0E0,0E0,0E0,0E0,0E0,0E0,1.2509308E0,0E0,0E0],"parents":[2147483647,0,0,1,1,2,2,3,3,5,5,6,6,7,7,8,8,9,9,11,11,12,12,15,15,16,16,17,17,28,28],"right_children":[2,4,6,8,-1,10,12,14,16,18,-1,20,22,-1,-1,24,26,28,-1,-1,-1,-1,-1,-1,-1,-1,-1,-1,30,-1,-1],"split_conditions":[7.9893544E-2,4.5137638E5,1.4055586E-1,4.219621E-1,-1.2272983E-1,6.6626844E0,1.4191843E-3,5.265483E5,1.13761224E-1,1.6353749E3,5.1796664E-2,4.0534568E-1,2.708811E3,6.652277E-2,-1.0918256E-1,4.287649E0,2.726751E3,4.5725104E-4,-1.6084875E-1,-1.095245E-1,5.176731E-1,6.0789756E-2,-1.4757147E-1,-1.0794001E-1,2.1074396E-1,4.454455E-1,3.801912E-2,2.1407932E-1,2.0675012E3,6.109291E-2,-1.4638624E-1],"split_indices":[1,5,10,0,0,13,3,9,10,14,0,0,4,0,0,13,6,3,0,0,0,0,0,0,0,0,0,0,6,0,0],"split_type":[0,0,0,0,0,0,0,0,0,0,0,0,0,0,0,0,0,0,0,0,0,0,0,0,0,0,0,0,0,0,0],"sum_hessian":[1.4038715E2,3.507608E1,1.05311066E2,3.216329E1,2.9127946E0,8.931447E1,1.5996595E1,2.9133265E0,2.924996E1,8.81882E1,1.1262652E0,5.8680444E0,1.01285515E1,1.006049E0,1.9072776E0,2.6353865E0,2.6614573E1,2.8778759E1,5.9409443E1,1.9210991E0,3.9469454E0,1.0529972E0,9.075554E0,1.6197739E0,1.0156126E0,2.5448792E1,1.1657817E0,1.0150274E0,2.7763733E1,2.357663E0,2.5406069E1],"tree_param":{"num_deleted":"0","num_feature":"15","num_nodes":"31","size_leaf_vector":"0"}},{"base_weights":[-1.6639876E-3,-3.6650681E-1,1.1120406E0,-4.8092595E-1,7.747418E-2,-2.2660427E-1,1.4047788E0,-5.129568E-1,-1.2337952E-1,-4.7466692E-1,3.250346E-1,-4.7506514E-1,3.885057E-1,2.3835874E-1,1.5433627E0,-5.248386E-1,-1.1428825E-1,-4.558742E-1,5.249998E-1,1.0975299E0,3.0023469E-2,-3.4122136E-1,7.2840875E-1,9.758662E-1,1.689252E0,2.2359239E-1,-3.3542204E-1,1.145847E0,-2.986853E-1,1.4235611E-1,1.390613E0,2.68797E-1,-4.3719465E-1,1.2137218E0,1.956465E-2,1.12335915E-2,1.1180172E0],"categories":[],"categories_nodes":[],"categories_segments":[],"categories_sizes":[],"default_left":[1,1,1,1,1,1,1,1,1,0,1,0,0,1,1,0,1,0,1,1,1,0,0,1,0,0,0,0,0,0,0,1,0,0,0,0,0],"id":17,"left_children":[1,3,5,7,9,11,13,15,17,-1,19,-1,-1,21,23,-1,25,-1,27,29,31,-1,-1,33,-1,-1,-1,-1,-1,-1,-1,35,-1,-1,-1,-1,-1],"loss_changes":[5.8023006E1,5.5012302E0,1.4126762E1,9.1771126E-1,3.2845254E0,1.2825164E0,4.3284454E0,3.109131E-1,2.0414896E0,0E0,3.7056382E0,0E0,0E0,1.4607326E0,4.8630524E-1,0E0,3.3982703E-1,0E0,2.0290115E0,1.0633192E0,1.5565697E0,0E0,0E0,1.7143002E0,0E0,0E0,0E0,0E0,0E0,0E0,0E0,1.990111E0,0E0,0E0,0E0,0E0,0E0],"parents":[2147483647,0,0,1,1,2,2,3,3,4,4,5,5,6,6,7,7,8,8,10,10,13,13,14,14,16,16,18,18,19,19,20,20,23,23,31,31],"right_children":[2,4,6,8,10,12,14,16,18,-1,20,-1,-1,22,24,-1,26,-1,28,30,32,-1,-1,34,-1,-1,-1,-1,-1,-1,-1,36,-1,-1,-1,-1,-1],"split_conditions":[2.8482666E3,2.743409E6,1.544792E-1,4.8395097E-3,6.581828E-2,9.056853E-2,9.771686E4,2.7313828E3,2.4299155E3,-1.4240009E-1,3.4018475E-1,-1.4251955E-1,1.1655171E-1,3.6879797E-3,9.754357E1,-1.574516E-1,1.2025035E2,-1.3676226E-1,3.116046E-3,8.866115E-2,6.0077636E-3,-1.0236641E-1,2.1852264E-1,1.0750879E3,5.067756E-1,6.707772E-2,-1.0062662E-1,3.437541E-1,-8.96056E-2,4.2706836E-2,4.171839E-1,5.274405E-3,-1.311584E-1,3.6411655E-1,5.869395E-3,3.3700776E-3,3.3540517E-1],"split_indices":[6,9,2,3,10,1,7,6,6,0,0,0,0,3,12,0,12,0,11,1,11,0,0,14,0,0,0,0,0,0,0,11,0,0,0,0,0],"split_type":[0,0,0,0,0,0,0,0,0,0,0,0,0,0,0,0,0,0,0,0,0,0,0,0,0,0,0,0,0,0,0,0,0,0,0,0,0],"sum_hessian":[1.4079568E2,1.0655864E2,3.423705E1,8.465805E1,2.1900589E1,6.184095E0,2.8052954E1,7.7298584E1,7.3594656E0,6.495689E0,1.5404901E1,4.5670176E0,1.6170775E0,3.267904E0,2.478505E1,7.475415E1,2.5444386E0,5.0610275E0,2.298438E0,3.5054574E0,1.1899443E1,1.6363274E0,1.6315765E0,6.6410494E0,1.8144E1,1.0021257E0,1.5423129E0,1.087568E0,1.2108699E0,1.171898E0,2.3335593E0,8.155984E0,3.743459E0,5.1027E0,1.5383492E0,7.0354133E0,1.1205707E0],"tree_param":{"num_deleted":"0","num_feature":"15","num_nodes":"37","size_leaf_vector":"0"}},{"base_weights":[1.6986004E-3,-3.8113758E-1,4.2704064E-1,-4.6852112E-1,-4.5158505E-2,-1.2841192E-1,7.240052E-1,-5.33991E-1,-1.13720566E-1,-4.9399972E-1,4.7494543E-1,9.449729E-1,-2.3377824E-1,8.15882E-2,1.2539592E0,5.6026226E-1,-3.58739E-1,1.0862706E0,-2.1975094E-1,-5.0806063E-1,7.066768E-2,6.4592695E-1,-3.50467E-1,1.1741103E-1,1.4935886E0,1.1530821E0,-2.902705E-1,-4.6966508E-1,1.9911316E-1,1.5390266E0,2.985745E-1,1.7189506E-1,-3.9421725E-1,4.075238E-1,-4.4121215E-1,-1.484961E-1,9.8476344E-1,-4.9907953E-1,1.2064859E-1,5.0435513E-1,-3.6755127E-1,1.5766877E-3,1.6446632E0,-3.809951E-1,7.698434E-1,1.99425E-1,-3.5809472E-1,1.3574821E0,-9.191014E-3,6.7601997E-1,-3.4647596E-1,-2.9188368E-1,1.0449673E0,3.9642534E-1,1.744585E0],"categories":[],"categories_nodes":[],"categories_segments":[],"categories_sizes":[],"default_left":[1,1,1,1,1,1,1,0,1,0,1,0,1,1,1,1,1,1,1,0,1,1,1,1,1,0,0,0,0,0,0,0,0,1,0,1,1,0,1,1,0,0,1,0,0,0,0,0,0,0,0,0,0,0,0],"id":18,"left_children":[1,3,5,7,9,11,13,-1,15,-1,17,-1,19,21,23,25,27,29,31,-1,33,35,37,39,41,-1,-1,-1,-1,-1,-1,-1,-1,43,-1,45,47,-1,49,51,-1,-1,53,-1,-1,-1,-1,-1,-1,-1,-1,-1,-1,-1,-1],"loss_changes":[2.2994152E1,2.1608324E0,1.1126422E1,1.3068476E0,4.074022E0,2.9525142E0,1.4788153E1,0E0,1.9253652E0,0E0,3.6907258E0,0E0,1.9393904E0,5.3078156E0,6.3329735E0,1.935251E0,6.051234E-1,1.1424537E0,3.845717E-1,0E0,2.1940272E0,2.673441E0,9.3201756E-1,1.1698829E0,4.426735E0,0E0,0E0,0E0,0E0,0E0,0E0,0E0,0E0,2.4545956E0,0E0,3.3948648E-1,2.499218E0,0E0,1.2177988E0,1.7425832E0,0E0,0E0,1.5338593E0,0E0,0E0,0E0,0E0,0E0,0E0,0E0,0E0,0E0,0E0,0E0,0E0],"parents":[2147483647,0,0,1,1,2,2,3,3,4,4,5,5,6,6,8,8,10,10,12,12,13,13,14,14,15,15,16,16,17,17,18,18,20,20,21,21,22,22,23,23,24,24,33,33,35,35,36,36,38,38,39,39,42,42],"right_children":[2,4,6,8,10,12,14,-1,16,-1,18,-1,20,22,24,26,28,30,32,-1,34,36,38,40,42,-1,-1,-1,-1,-1,-1,-1,-1,44,-1,46,48,-1,50,52,-1,-1,54,-1,-1,-1,-1,-1,-1,-1,-1,-1,-1,-1,-1],"split_conditions":[1.3059609E5,1.3977693E2,3.6186573E-1,4.147175E-3,1.6899048E-3,1.347541E5,1.2025035E2,-1.601973E-1,2.6756802E3,-1.4819992E-1,2.6652538E-3,2.8349188E-1,3.2236424E-1,8.284561E-1,1.1712559E3,4.4928223E-1,9.3728304E-2,1.23046435E-1,3.905543E-1,-1.524182E-1,8.291529E-2,1.937099E5,5.0016584E0,1.3514403E-1,1.298218E-3,3.4592465E-1,-8.708116E-2,-1.4089952E-1,5.973395E-2,4.61708E-1,8.9572355E-2,5.156852E-2,-1.1826518E-1,6.0057648E-2,-1.3236365E-1,2.7431566E-3,4.0567545E-3,-1.4972386E-1,1.0000982E-1,3.5479006E-3,-1.1026538E-1,4.730063E-4,1.8117849E3,-1.1429853E-1,2.3095302E-1,5.9827503E-2,-1.07428424E-1,4.0724465E-1,-2.7573043E-3,2.02806E-1,-1.0394279E-1,-8.756511E-2,3.134902E-1,1.18927605E-1,5.233755E-1],"split_indices":[7,12,0,11,3,7,12,0,4,0,3,0,0,13,14,0,1,2,0,0,10,7,13,10,3,0,0,0,0,0,0,0,0,10,0,11,3,0,10,3,0,0,6,0,0,0,0,0,0,0,0,0,0,0,0],"split_type":[0,0,0,0,0,0,0,0,0,0,0,0,0,0,0,0,0,0,0,0,0,0,0,0,0,0,0,0,0,0,0,0,0,0,0,0,0,0,0,0,0,0,0,0,0,0,0,0,0,0,0,0,0,0,0],"sum_hessian":[1.3921068E2,7.33209E1,6.588977E1,5.787414E1,1.544676E1,2.3152376E1,4.27374E1,4.8432117E1,9.442024E0,8.31835E0,7.1284103E0,1.3572618E0,2.1795115E1,1.9840475E1,2.2896923E1,2.1743453E0,7.2676787E0,3.4919076E0,3.6365025E0,1.1113709E1,1.0681404E1,8.388557E0,1.1451917E1,4.2464123E0,1.8650513E1,1.0716734E0,1.102672E0,6.194097E0,1.0735817E0,1.6116955E0,1.8802121E0,1.125251E0,2.5112514E0,6.565E0,4.1164045E0,2.6760771E0,5.7124805E0,8.660592E0,2.7913246E0,2.3396513E0,1.9067608E0,1.8077383E0,1.6842773E1,2.0506375E0,4.5143623E0,1.0243148E0,1.6517624E0,3.8885803E0,1.8239003E0,1.0709096E0,1.7204149E0,1.1321924E0,1.207459E0,1.6165059E0,1.5226268E1],"tree_param":{"num_deleted":"0","num_feature":"15","num_nodes":"55","size_leaf_vector":"0"}},{"base_weights":[-6.543591E-3,1.5408348E-1,-3.1145608E-1,2.85767E-1,-4.524578E-1,-3.483138E-1,6.7934E-1,-5.0297755E-1,4.4764742E-1,1.762317E-1,-5.096182E-1,-2.5829744E-1,-5.125206E-1,5.917931E-1,-3.1474718E-1,-3.553455E-1,3.1207055E-1,1.014029E0,4.134325E-1,5.602724E-1,-4.941026E-1,-4.4763565E-1,2.522213E-1,1.0077823E0,-3.8649496E-1,9.350564E-2,1.5605353E0,6.108431E-1,-3.749383E-1,-4.84944E-1,1.7624952E-1,9.3845135E-1,-3.6855215E-1],"categories":[],"categories_nodes":[],"categories_segments":[],"categories_sizes":[],"default_left":[1,1,1,1,1,1,0,0,1,0,0,1,0,1,1,1,1,1,1,0,0,1,1,0,0,0,0,0,0,0,0,0,0],"id":19,"left_children":[1,3,5,7,9,11,-1,-1,13,-1,-1,15,-1,17,19,21,23,25,27,-1,-1,29,31,-1,-1,-1,-1,-1,-1,-1,-1,-1,-1],"loss_changes":[6.8356843E0,7.432744E0,1.9949479E0,9.896065E0,6.898749E-1,5.6356525E-1,0E0,0E0,7.1507072E0,0E0,0E0,1.9058664E0,0E0,3.620676E0,1.9607185E0,1.6930254E0,2.9398801E0,7.522045E0,6.361155E0,0E0,0E0,6.632848E-1,2.2013724E0,0E0,0E0,0E0,0E0,0E0,0E0,0E0,0E0,0E0,0E0],"parents":[2147483647,0,0,1,1,2,2,3,3,4,4,5,5,8,8,11,11,13,13,14,14,15,15,16,16,17,17,18,18,21,21,22,22],"right_children":[2,4,6,8,10,12,-1,-1,14,-1,-1,16,-1,18,20,22,24,26,28,-1,-1,30,32,-1,-1,-1,-1,-1,-1,-1,-1,-1,-1],"split_conditions":[8.919218E-2,4.6225762E-1,6.680556E6,2.9395437E-1,5.486072E2,4.0025376E-3,2.03802E-1,-1.5089327E-1,5.927364E3,5.286951E-2,-1.5288547E-1,1.4171034E0,-1.5375619E-1,8.065508E-2,9.754357E1,7.97003E5,2.3586785E3,7.6752825E5,4.2052397E-1,1.6808173E-1,-1.4823079E-1,1.5142345E-1,3.2544018E6,3.0233473E-1,-1.1594849E-1,2.8051695E-2,4.681606E-1,1.8325295E-1,-1.124815E-1,-1.454832E-1,5.287486E-2,2.8153542E-1,-1.1056565E-1],"split_indices":[1,0,9,0,14,3,0,0,8,0,0,13,0,1,12,5,6,9,0,0,0,2,9,0,0,0,0,0,0,0,0,0,0],"split_type":[0,0,0,0,0,0,0,0,0,0,0,0,0,0,0,0,0,0,0,0,0,0,0,0,0,0,0,0,0,0,0,0,0],"sum_hessian":[1.3758887E2,9.043999E1,4.7148872E1,7.474195E1,1.5698038E1,4.608303E1,1.0658433E0,1.2368876E1,6.2373074E1,1.1347027E0,1.4563335E1,3.1427704E1,1.4655326E1,5.2643547E1,9.7295265E0,2.7180017E1,4.247687E0,1.4242285E1,3.840126E1,1.293777E0,8.435749E0,2.3824306E1,3.3557105E0,1.9064146E0,2.3412724E0,5.7418814E0,8.500403E0,3.0891191E1,7.510071E0,2.269014E1,1.1341674E0,1.3507676E0,2.004943E0],"tree_param":{"num_deleted":"0","num_feature":"15","num_nodes":"33","size_leaf_vector":"0"}},{"base_weights":[1.5508845E-2,2.0052834E-1,-4.5034963E-1,-5.407554E-2,6.5204626E-1,4.1064352E-1,-4.985247E-1,-3.697497E-1,2.3464945E-1,9.348863E-1,3.7461914E-2,-2.2980197E-1,-5.2200097E-1,-4.5356256E-1,3.488638E-1,6.9532865E-1,-3.3079997E-1,-3.3941835E-1,1.043587E0,6.562994E-1,-2.7725267E-1,-4.0263677E-1,2.0911147E-1,-5.239153E-1,4.590449E-1,7.8368485E-1,-2.961059E-1,9.330653E-1,-4.0406492E-1,-4.9632448E-1,-4.0342692E-2,5.536176E-1,1.1876034E0,1.149585E-2,1.0345421E0,3.2396543E-1,-4.678635E-1,-4.133329E-1,1.2448826E0,-3.9712626E-1,2.8946236E-1,-8.640108E-2,8.3111566E-1],"categories":[],"categories_nodes":[],"categories_segments":[],"categories_sizes":[],"default_left":[1,1,1,1,1,0,1,1,1,1,1,1,0,1,1,1,1,0,1,1,1,0,0,0,0,0,0,1,0,0,1,1,0,0,0,0,0,0,0,0,0,0,0],"id":20,"left_children":[1,3,5,7,9,-1,11,13,15,17,19,21,-1,23,25,27,29,-1,31,33,35,-1,-1,-1,-1,-1,-1,37,-1,-1,39,41,-1,-1,-1,-1,-1,-1,-1,-1,-1,-1,-1],"loss_changes":[1.1693045E1,1.1190812E1,1.8046846E0,5.82641E0,6.060462E0,0E0,1.1334324E-1,1.9934912E0,8.957175E0,3.674837E0,2.537245E0,4.4510993E-1,0E0,2.0204644E0,1.2831521E0,5.2865505E0,7.3569477E-1,0E0,9.184723E-1,1.0548595E0,1.1508229E0,0E0,0E0,0E0,0E0,0E0,0E0,7.125432E0,0E0,0E0,9.144496E-1,1.3055494E0,0E0,0E0,0E0,0E0,0E0,0E0,0E0,0E0,0E0,0E0,0E0],"parents":[2147483647,0,0,1,1,2,2,3,3,4,4,6,6,7,7,8,8,9,9,10,10,11,11,13,13,14,14,15,15,16,16,18,18,19,19,20,20,27,27,30,30,31,31],"right_children":[2,4,6,8,10,-1,12,14,16,18,20,22,-1,24,26,28,30,-1,32,34,36,-1,-1,-1,-1,-1,-1,38,-1,-1,40,42,-1,-1,-1,-1,-1,-1,-1,-1,-1,-1,-1],"split_conditions":[2.3757021E3,9.104329E-2,5.52093E5,1.1622508E-1,1.572999E3,1.2319306E-1,9.566879E5,2.309425E3,2.3679844E5,1.2659916E-3,1.3858229E6,1.3595627E3,-1.566003E-1,3.02841E6,3.6468795E-1,4.5321944E-1,3.235015E-3,-1.0182551E-1,7.443944E-4,2.7565988E5,5.8601305E-2,-1.2079103E-1,6.273344E-2,-1.5717459E-1,1.3771348E-1,2.3510547E-1,-8.883177E-2,1.7182814E3,-1.2121948E-1,-1.4889735E-1,1.5226622E3,1.2434284E5,3.56281E-1,3.4487552E-3,3.1036264E-1,9.7189635E-2,-1.4035906E-1,-1.2399988E-1,3.734648E-1,-1.1913788E-1,8.683871E-2,-2.5920326E-2,2.4933471E-1],"split_indices":[6,1,9,2,4,0,9,6,5,3,9,14,0,9,0,0,3,0,11,5,10,0,0,0,0,0,0,4,0,0,14,7,0,0,0,0,0,0,0,0,0,0,0],"split_type":[0,0,0,0,0,0,0,0,0,0,0,0,0,0,0,0,0,0,0,0,0,0,0,0,0,0,0,0,0,0,0,0,0,0,0,0,0,0,0,0,0,0,0],"sum_hessian":[1.336136E2,9.604006E1,3.7573544E1,6.1974083E1,3.406598E1,1.5922675E0,3.5981277E1,2.9471323E1,3.250276E1,2.2972538E1,1.1093439E1,3.7576623E0,3.2223614E1,2.6723375E1,2.7479475E0,1.7784115E1,1.4718647E1,1.6387602E0,2.1333778E1,3.373869E0,7.7195706E0,2.755325E0,1.0023373E0,2.5206152E1,1.5172236E0,1.5129113E0,1.2350361E0,1.4746558E1,3.0375562E0,8.924195E0,5.7944517E0,5.94658E0,1.53871975E1,1.6283522E0,1.7455167E0,1.689859E0,6.0297117E0,2.7117796E0,1.2034779E1,2.6853316E0,3.10912E0,2.0067878E0,3.9397924E0],"tree_param":{"num_deleted":"0","num_feature":"15","num_nodes":"43","size_leaf_vector":"0"}},{"base_weights":[-3.971226E-3,8.260613E-1,-4.353742E-1,9.389539E-1,-2.7444753E-1,1.0190571E-1,-4.8350006E-1,1.0088705E0,5.2988265E-2,-4.4978842E-1,2.1502912E-1,5.87235E-1,-4.1989255E-1,-2.2909817E-1,-5.1680624E-1,1.0430672E0,2.0868891E-1,6.930114E-1,-3.7684402E-1,9.149491E-1,-2.779237E-1,-4.8313722E-1,8.049965E-1,-2.9870445E-1,-5.291139E-1,1.0807685E0,4.6187177E-1,1.4409715E-1,1.1972061E0,-4.406756E-1,2.0560457E-1,3.4765768E-1,1.1019465E0,8.4366906E-1,-3.1499672E-1],"categories":[],"categories_nodes":[],"categories_segments":[],"categories_sizes":[],"default_left":[1,1,1,1,1,1,1,1,1,0,0,1,0,1,1,1,0,0,0,1,0,0,0,1,0,1,1,0,0,0,0,0,0,0,0],"id":21,"left_children":[1,3,5,7,9,11,13,15,17,-1,-1,19,-1,21,23,25,-1,-1,-1,27,-1,-1,-1,29,-1,31,33,-1,-1,-1,-1,-1,-1,-1,-1],"loss_changes":[4.8490215E1,6.011671E0,2.3531303E0,2.5624847E0,5.329468E-1,2.3107064E0,5.759659E-1,8.518715E-1,1.40128E0,0E0,0E0,1.5698051E0,0E0,3.3529766E0,3.4324646E-2,3.1669998E-1,0E0,0E0,0E0,6.103685E-1,0E0,0E0,0E0,5.291056E-1,0E0,1.4819336E-1,1.4564772E0,0E0,0E0,0E0,0E0,0E0,0E0,0E0,0E0],"parents":[2147483647,0,0,1,1,2,2,3,3,4,4,5,5,6,6,7,7,8,8,11,11,13,13,14,14,15,15,19,19,23,23,25,25,26,26],"right_children":[2,4,6,8,10,12,14,16,18,-1,-1,20,-1,22,24,26,-1,-1,-1,28,-1,-1,-1,30,-1,32,34,-1,-1,-1,-1,-1,-1,-1,-1],"split_conditions":[-5.58197E0,1.9591387E3,4.712795E5,9.0975046E-2,1.1406182E-1,3.5011685E-1,1.5289536E3,3.2078868E-1,2.952611E-2,-1.3493653E-1,6.4508736E-2,3.662987E3,-1.2596777E-1,1.458728E3,3.1163555E-1,7.4978545E-2,6.260668E-2,2.0790343E-1,-1.1305321E-1,3.229322E5,-8.3377115E-2,-1.4494117E-1,2.4149896E-1,3.4956625E-3,-1.5873417E-1,1.9884762E-1,2.647879E-1,4.3229148E-2,3.5916185E-1,-1.3220268E-1,6.168137E-2,1.0429731E-1,3.3058396E-1,2.5310072E-1,-9.449902E-2],"split_indices":[13,6,9,1,10,0,4,0,2,0,0,14,0,4,0,2,0,0,0,9,0,0,0,3,0,0,0,0,0,0,0,0,0,0,0],"split_type":[0,0,0,0,0,0,0,0,0,0,0,0,0,0,0,0,0,0,0,0,0,0,0,0,0,0,0,0,0,0,0,0,0,0,0],"sum_hessian":[1.3341347E2,4.5313698E1,8.809976E1,4.1230938E1,4.082759E0,7.1507597E0,8.0949005E1,3.8086582E1,3.144355E0,3.0656583E0,1.0171008E0,3.639874E0,3.510886E0,1.0283015E1,7.0665985E1,3.623452E1,1.8520622E0,1.017302E0,2.127053E0,2.5981631E0,1.0417109E0,8.68277E0,1.6002455E0,5.12454E0,6.554145E1,3.3220028E1,3.0144937E0,1.1012194E0,1.4969437E0,4.0972714E0,1.0272688E0,1.4216951E0,3.1798332E1,1.9635212E0,1.0509726E0],"tree_param":{"num_deleted":"0","num_feature":"15","num_nodes":"35","size_leaf_vector":"0"}},{"base_weights":[8.258153E-3,2.2357747E-1,-3.881308E-1,-4.9104172E-1,3.2533333E-1,6.128575E-1,-4.6167773E-1,4.6847555E-1,-3.159993E-1,1.2726854E0,-3.304065E-1,-4.8117608E-1,9.2643894E-2,7.20443E-1,7.003885E-2,3.4943644E-2,-4.9134076E-1,-2.2374052E-1,-5.2203614E-1,4.973511E-2,9.1723937E-1,-3.8046488E-1,4.556087E-1,-4.2271432E-1,8.3631223E-1,2.1110809E-1,-4.4453338E-1,-4.723261E-1,6.0662997E-1,1.0726013E0,2.6075318E-1,-5.2658045E-1,1.04192115E-1,9.8079157E-1,7.9687856E-2,-3.1177828E-1,7.0540416E-1],"categories":[],"categories_nodes":[],"categories_segments":[],"categories_sizes":[],"default_left":[1,1,1,0,1,1,1,1,1,0,0,1,0,1,1,1,0,1,0,1,1,1,1,0,0,1,0,0,0,0,0,0,0,0,0,0,0],"id":22,"left_children":[1,3,5,-1,7,9,11,13,15,-1,-1,17,-1,19,21,23,-1,25,-1,27,29,31,33,-1,-1,35,-1,-1,-1,-1,-1,-1,-1,-1,-1,-1,-1],"loss_changes":[1.1794958E1,6.6698146E0,3.8646655E0,0E0,7.3975306E0,2.7604716E0,5.40596E-1,6.47132E0,9.4059575E-1,0E0,0E0,3.5122585E-1,0E0,5.1929398E0,4.7371917E0,2.5295823E0,0E0,8.4703505E-1,0E0,3.2115183E0,2.844101E0,9.5151925E-1,2.806741E0,0E0,0E0,1.0779712E0,0E0,0E0,0E0,0E0,0E0,0E0,0E0,0E0,0E0,0E0,0E0],"parents":[2147483647,0,0,1,1,2,2,4,4,5,5,6,6,7,7,8,8,11,11,13,13,14,14,15,15,17,17,19,19,20,20,21,21,22,22,25,25],"right_children":[2,4,6,-1,8,10,12,14,16,-1,-1,18,-1,20,22,24,-1,26,-1,28,30,32,34,-1,-1,36,-1,-1,-1,-1,-1,-1,-1,-1,-1,-1,-1],"split_conditions":[3.9230096E-1,5.6430775E5,3.8077667E2,-1.4731252E-1,9.335005E-2,4.3219444E-1,2.1148866E-1,4.2475034E3,3.01566E-1,3.8180563E-1,-9.912195E-2,4.0341753E-1,2.7793169E-2,2.872214E-1,3.649927E-1,2.816519E-1,-1.4740223E-1,8.2695976E-2,-1.5661085E-1,1.1420338E6,2.3712945E6,1.22419626E-1,1.1632103E-3,-1.268143E-1,2.5089368E-1,1.1279686E5,-1.3336001E-1,-1.4169784E-1,1.81989E-1,3.217804E-1,7.8225955E-2,-1.5797414E-1,3.1257637E-2,2.942375E-1,2.3906358E-2,-9.3533486E-2,2.1162125E-1],"split_indices":[0,9,14,0,1,0,10,8,0,0,0,0,0,0,0,0,0,1,0,9,9,10,3,0,0,7,0,0,0,0,0,0,0,0,0,0,0],"split_type":[0,0,0,0,0,0,0,0,0,0,0,0,0,0,0,0,0,0,0,0,0,0,0,0,0,0,0,0,0,0,0,0,0,0,0,0,0],"sum_hessian":[1.3617813E2,8.852638E1,4.7651752E1,1.0557392E1,7.796899E1,2.7596378E0,4.4892113E1,6.3962425E1,1.4006563E1,1.4182878E0,1.3413501E0,4.3494152E1,1.39796E0,3.868821E1,2.5274216E1,4.933319E0,9.073244E0,6.8447976E0,3.6649357E1,9.0607395E0,2.9627468E1,1.166175E1,1.3612466E1,3.440802E0,1.4925169E0,2.3198154E0,4.524982E0,4.755011E0,4.305729E0,2.344516E1,6.182308E0,8.893895E0,2.7678547E0,5.007569E0,8.6048975E0,1.3067404E0,1.013075E0],"tree_param":{"num_deleted":"0","num_feature":"15","num_nodes":"37","size_leaf_vector":"0"}},{"base_weights":[6.9366554E-3,-4.2406482E-1,2.2446674E-1,-5.191651E-1,-2.2647072E-1,-2.2898541E-1,3.986843E-1,5.694754E-1,-3.2671124E-1,1.3076371E-3,-4.3653777E-1,5.6032187E-1,-2.8739035E-1,1.3110995E-1,-4.9843156E-1,-1.7870095E-1,9.500088E-1,1.0322962E-1,-5.0435334E-1,-4.3405643E-1,6.3437027E-1,1.3942178E-1,-4.844375E-1,-3.804541E-1,6.4193046E-1,-3.6412176E-1,1.7582025E-1,8.278059E-1,9.904878E-2,-3.554593E-1,5.02968E-1,2.2059166E-1,-4.7585508E-1,8.3306885E-1,-3.8341087E-1,-2.4764761E-1,9.622963E-1,-4.498584E-1,3.2815912E-1,1.086746E0,-2.962226E-1],"categories":[],"categories_nodes":[],"categories_segments":[],"categories_sizes":[],"default_left":[1,1,1,0,1,1,1,0,1,1,1,1,1,1,0,1,0,0,0,0,1,1,0,0,0,1,1,1,1,0,1,0,0,0,0,0,0,0,0,0,0],"id":23,"left_children":[1,3,5,-1,7,9,11,-1,13,15,17,19,21,23,-1,25,-1,-1,-1,-1,27,29,-1,-1,-1,31,33,35,37,-1,39,-1,-1,-1,-1,-1,-1,-1,-1,-1,-1],"loss_changes":[1.3057894E1,7.60376E-1,7.401811E0,0E0,1.5387564E0,1.2586362E0,7.6152544E0,0E0,1.2991054E0,2.4707413E0,5.5892015E-1,4.306019E0,1.2010583E0,1.5697263E0,0E0,8.638005E-1,0E0,0E0,0E0,0E0,5.2356224E0,1.0843773E0,0E0,0E0,0E0,6.481478E-1,2.1029618E0,5.674734E0,2.004684E0,0E0,1.8689501E0,0E0,0E0,0E0,0E0,0E0,0E0,0E0,0E0,0E0,0E0],"parents":[2147483647,0,0,1,1,2,2,4,4,5,5,6,6,8,8,9,9,10,10,11,11,12,12,13,13,15,15,20,20,21,21,25,25,26,26,27,27,28,28,30,30],"right_children":[2,4,6,-1,8,10,12,-1,14,16,18,20,22,24,-1,26,-1,-1,-1,-1,28,30,-1,-1,-1,32,34,36,38,-1,40,-1,-1,-1,-1,-1,-1,-1,-1,-1,-1],"split_conditions":[8.9869425E-2,3.8136667E3,2.84901E5,-1.5574953E-1,3.8747065E3,1.2532242E-1,9.300629E5,1.7084263E-1,1.05490766E5,1.8265566E-3,7.121192E-2,3.2326072E-1,8.672426E-2,1.2773701E-3,-1.4952947E-1,2.5276199E3,2.8500265E-1,3.0968888E-2,-1.51306E-1,-1.3021694E-1,3.0304966E0,1.777142E0,-1.4533125E-1,-1.14136234E-1,1.9257915E-1,9.400773E-2,2.6926436E3,8.3718356E-4,4.135462E-1,-1.066378E-1,4.451103E0,6.61775E-2,-1.4275654E-1,2.4992067E-1,-1.1502326E-1,-7.4294284E-2,2.886889E-1,-1.3495752E-1,9.844774E-2,3.2602382E-1,-8.8866785E-2],"split_indices":[10,8,5,0,8,2,5,0,7,3,1,0,1,11,0,4,0,0,0,0,13,13,0,0,0,10,4,3,0,0,13,0,0,0,0,0,0,0,0,0,0],"split_type":[0,0,0,0,0,0,0,0,0,0,0,0,0,0,0,0,0,0,0,0,0,0,0,0,0,0,0,0,0,0,0,0,0,0,0,0,0,0,0,0,0],"sum_hessian":[1.3726031E2,4.5721313E1,9.153901E1,2.9767193E1,1.5954121E1,2.5320536E1,6.621847E1,1.260914E0,1.4693207E1,1.2473767E1,1.2846768E1,5.3740604E1,1.2477868E1,4.0723805E0,1.0620826E1,1.1166624E1,1.3071429E0,1.3756099E0,1.1471159E1,3.3875954E0,5.035301E1,4.0335274E0,8.444341E0,2.1622217E0,1.910159E0,7.314127E0,3.8524973E0,3.6586353E1,1.3766656E1,1.7176301E0,2.3158972E0,1.0171248E0,6.297002E0,1.545935E0,2.3065622E0,3.9732068E0,3.2613144E1,3.7702684E0,9.9963875E0,1.1303858E0,1.1855116E0],"tree_param":{"num_deleted":"0","num_feature":"15","num_nodes":"41","size_leaf_vector":"0"}},{"base_weights":[-1.7634876E-2,-4.5981407E-1,3.1822124E-1,-4.9168965E-1,1.2984046E-1,-3.2722372E-1,5.38807E-1,-5.0908065E-1,1.7630076E-1,7.0955753E-1,-3.4714967E-1,-4.57153E-1,5.354949E-1,-1.3014509E-1,7.115304E-1,-1.8421818E-1,-5.270833E-1,2.0730567E-1,-5.105699E-1,1.469783E-1,6.615498E-1,-4.76657E-1,3.6281043E-1,1.0103065E-1,8.720296E-1,-3.7520352E-1,2.1998976E-1,-3.6340994E-1,7.9274684E-1,3.671283E-1,-4.454564E-1,4.6924487E-1,1.0868772E0,1.0437086E0,1.2951198E-1,-7.27038E-2,8.3727837E-1,-8.365038E-2,8.877689E-1,1.1645541E0,2.2174945E-1],"categories":[],"categories_nodes":[],"categories_segments":[],"categories_sizes":[],"default_left":[1,1,1,1,1,1,1,1,0,0,0,1,1,1,1,1,0,0,0,0,0,0,1,1,1,0,0,0,1,1,0,1,1,0,0,0,0,0,0,0,0],"id":24,"left_children":[1,3,5,7,9,11,13,15,-1,-1,-1,17,19,21,23,25,-1,-1,-1,-1,-1,-1,27,29,31,-1,-1,-1,33,35,-1,37,39,-1,-1,-1,-1,-1,-1,-1,-1],"loss_changes":[1.9628765E1,1.1359205E0,1.0875637E1,7.208166E-1,1.2739722E0,2.4600997E0,6.607565E0,2.1404266E-1,0E0,0E0,0E0,7.346349E-1,5.2009523E-2,2.2938447E0,4.318161E0,4.1686177E-1,0E0,0E0,0E0,0E0,0E0,0E0,2.0656106E0,1.6893085E0,2.5600433E0,0E0,0E0,0E0,5.1235247E-1,1.633392E0,0E0,3.3371267E0,1.2454433E0,0E0,0E0,0E0,0E0,0E0,0E0,0E0,0E0],"parents":[2147483647,0,0,1,1,2,2,3,3,4,4,5,5,6,6,7,7,11,11,12,12,13,13,14,14,15,15,22,22,23,23,24,24,28,28,29,29,31,31,32,32],"right_children":[2,4,6,8,10,12,14,16,-1,-1,-1,18,20,22,24,26,-1,-1,-1,-1,-1,-1,28,30,32,-1,-1,-1,34,36,-1,38,40,-1,-1,-1,-1,-1,-1,-1,-1],"split_conditions":[3.9043215E-1,4.509183E0,1.7365586E-3,4.2405272E5,1.120913E6,8.0297044E5,8.98479E2,1.0011304E3,5.289023E-2,2.1286727E-1,-1.0414491E-1,1.8464031E3,3.0528762E3,4.6806034E-1,2.1949065E3,7.828924E5,-1.5812498E-1,6.2191702E-2,-1.5317097E-1,4.4093493E-2,1.9846494E-1,-1.429971E-1,7.836668E-2,1.8517444E5,4.0567545E-3,-1.1256106E-1,6.599693E-2,-1.0902298E-1,8.524464E5,1.2926697E5,-1.3363692E-1,4.593554E-1,2.9722737E3,3.131126E-1,3.8853597E-2,-2.181114E-2,2.511835E-1,-2.5095114E-2,2.663307E-1,3.4936625E-1,6.652484E-2],"split_indices":[0,13,3,7,9,5,14,14,0,0,0,6,4,0,6,5,0,0,0,0,0,0,1,7,3,0,0,0,5,7,0,0,6,0,0,0,0,0,0,0,0],"split_type":[0,0,0,0,0,0,0,0,0,0,0,0,0,0,0,0,0,0,0,0,0,0,0,0,0,0,0,0,0,0,0,0,0,0,0,0,0,0,0,0,0],"sum_hessian":[1.3018732E2,5.603891E1,7.414841E1,5.3322533E1,2.7163746E0,1.8763128E1,5.538528E1,5.2201374E1,1.1211581E0,1.0060654E0,1.7103094E0,1.6715761E1,2.0473664E0,1.141641E1,4.3968872E1,3.3307047E0,4.887067E1,1.0294474E0,1.5686314E1,1.0321474E0,1.0152189E0,6.7234063E0,4.6930037E0,9.49223E0,3.4476643E1,2.3106809E0,1.020024E0,1.8027138E0,2.8902898E0,6.6045294E0,2.887701E0,1.3100539E1,2.1376102E1,1.6806749E0,1.2096149E0,3.849049E0,2.7554803E0,5.9889326E0,7.111607E0,1.9297354E1,2.078749E0],"tree_param":{"num_deleted":"0","num_feature":"15","num_nodes":"41","size_leaf_vector":"0"}},{"base_weights":[5.581185E-3,3.6590847E-1,-4.3511176E-1,5.954788E-1,1.0940349E-1,-7.97857E-2,-5.093296E-1,-9.817496E-3,9.118175E-1,6.5392965E-1,-3.888972E-1,-4.5556292E-1,3.114077E-1,-1.6975339E-1,-5.270849E-1,-1.8201222E-1,1.097442E0,1.1124223E0,3.392229E-2,8.148137E-1,-3.9019185E-1,-5.2866113E-1,2.3326285E-2,7.277354E-1,-3.6241546E-1,-3.6809596E-1,1.98598E-1,-4.2003387E-1,6.334884E-1,2.131796E-1,1.2054728E0,6.413318E-1,-4.19566E-1,1.8922947E-2,9.103615E-1,5.2349794E-1,-4.0234783E-1,1.3831419E0,-2.786984E-2,2.0745216E-1,-5.0835884E-1,7.7936405E-1,1.4310238E-1,6.228786E-1,-2.9541096E-1,1.3658392E-1,1.2641478E0,1.4347686E-1,1.0393238E0,6.772978E-1,1.2870601E-1],"categories":[],"categories_nodes":[],"categories_segments":[],"categories_sizes":[],"default_left":[1,1,1,1,1,1,1,1,1,1,1,0,1,1,0,1,0,1,1,1,0,0,1,1,0,0,0,1,1,1,1,0,0,0,1,1,0,0,0,0,0,0,0,0,0,0,0,0,0,0,0],"id":25,"left_children":[1,3,5,7,9,11,13,15,17,19,21,-1,23,25,-1,27,-1,29,31,33,-1,-1,35,37,-1,-1,-1,39,41,43,45,-1,-1,-1,47,49,-1,-1,-1,-1,-1,-1,-1,-1,-1,-1,-1,-1,-1,-1,-1],"loss_changes":[2.1539202E1,4.328766E0,1.5686245E0,7.5055294E0,1.014902E1,1.866109E0,2.1375751E-1,2.9505358E0,4.492447E0,3.3076682E0,1.1455121E0,0E0,2.0425367E0,3.634467E-1,0E0,2.8561378E0,0E0,1.4924488E0,1.8711532E0,1.1801462E0,0E0,0E0,1.4748523E0,2.1441128E0,0E0,0E0,0E0,7.1123326E-1,1.3264775E-1,8.456588E-1,1.0021553E0,0E0,0E0,0E0,1.2390862E0,1.0497856E-1,0E0,0E0,0E0,0E0,0E0,0E0,0E0,0E0,0E0,0E0,0E0,0E0,0E0,0E0,0E0],"parents":[2147483647,0,0,1,1,2,2,3,3,4,4,5,5,6,6,7,7,8,8,9,9,10,10,12,12,13,13,15,15,17,17,18,18,19,19,22,22,23,23,27,27,28,28,29,29,30,30,34,34,35,35],"right_children":[2,4,6,8,10,12,14,16,18,20,22,-1,24,26,-1,28,-1,30,32,34,-1,-1,36,38,-1,-1,-1,40,42,44,46,-1,-1,-1,48,50,-1,-1,-1,-1,-1,-1,-1,-1,-1,-1,-1,-1,-1,-1,-1],"split_conditions":[-5.692615E-1,7.833783E-2,1.1313274E-3,1.6705708E3,2.9564396E-1,1.5972486E-1,4.474759E2,2.1170458E5,1.9100156E5,1.9951258E-3,1.1809519E-1,-1.3666888E-1,3.879093E-1,3.0245217E3,-1.5812548E-1,1.6209445E-3,3.2923263E-1,-8.663696E0,4.895989E-2,-6.7443333E0,-1.1705756E-1,-1.5859835E-1,1.3488176E-1,2.287844E-3,-1.08724646E-1,-1.10428795E-1,5.9579402E-2,2.1839225E-1,8.161375E5,9.004805E-2,4.251803E4,1.9239955E-1,-1.2586981E-1,5.676884E-3,8.393395E-2,8.9916795E-2,-1.2070435E-1,4.149426E-1,-8.360952E-3,6.223565E-2,-1.5250766E-1,2.3380922E-1,4.2930715E-2,1.8686359E-1,-8.862329E-2,4.097518E-2,3.7924436E-1,4.304306E-2,3.1179714E-1,2.0318934E-1,3.8611803E-2],"split_indices":[13,2,11,6,0,2,14,7,7,11,2,0,0,6,0,3,0,13,2,13,0,0,2,3,0,0,0,0,9,10,7,0,0,0,2,1,0,0,0,0,0,0,0,0,0,0,0,0,0,0,0],"split_type":[0,0,0,0,0,0,0,0,0,0,0,0,0,0,0,0,0,0,0,0,0,0,0,0,0,0,0,0,0,0,0,0,0,0,0,0,0,0,0,0,0,0,0,0,0,0,0,0,0,0,0],"sum_hessian":[1.3364005E2,7.361738E1,6.0022667E1,3.8150986E1,3.546639E1,1.0729421E1,4.9293247E1,1.3427393E1,2.4723593E1,1.6797897E1,1.8668493E1,5.3886147E0,5.3408065E0,2.974056E0,4.631919E1,1.2343431E1,1.0839614E0,1.9907457E1,4.8161345E0,1.4745454E1,2.0524433E0,1.3730664E1,4.937829E0,3.2517028E0,2.0891035E0,1.9335886E0,1.0404673E0,9.930063E0,2.4133685E0,2.1753929E0,1.7732065E1,1.88163E0,2.9345043E0,1.7088863E0,1.3036568E1,2.164596E0,2.773233E0,1.2965641E0,1.9551387E0,1.058862E0,8.8712015E0,1.4058745E0,1.0074939E0,1.080374E0,1.0950189E0,1.0958903E0,1.6636175E1,2.1808023E0,1.0855765E1,1.0427779E0,1.1218183E0],"tree_param":{"num_deleted":"0","num_feature":"15","num_nodes":"51","size_leaf_vector":"0"}},{"base_weights":[-1.8694932E-2,7.44801E-1,-3.5151622E-1,8.389964E-1,-4.0848008E-1,-4.5459324E-1,1.3958044E-1,-3.606882E-1,9.1415125E-1,-2.4999465E-1,-5.1238847E-1,7.6239353E-1,-3.893892E-1,-2.8384596E-1,9.582179E-1,-4.9540302E-1,2.4572857E-1,1.0022216E0,-1.6575271E-2,-4.8322287E-1,1.9020247E-1,-2.8748325E-1,1.0046712E0,7.5217175E-1,-2.0712614E-1,2.658717E-1,1.2572371E0,1.033817E0,1.267604E-1,1.4893341E0,-3.0335805E-1,2.1536463E-1,-3.9487416E-1],"categories":[],"categories_nodes":[],"categories_segments":[],"categories_sizes":[],"default_left":[1,1,1,1,0,1,1,0,1,1,0,1,1,0,1,0,1,1,0,0,0,0,1,1,1,0,0,0,0,0,0,0,0],"id":26,"left_children":[1,3,5,7,-1,9,11,-1,13,15,-1,17,19,-1,21,-1,23,25,-1,-1,-1,-1,27,29,31,-1,-1,-1,-1,-1,-1,-1,-1],"loss_changes":[3.398913E1,4.75482E0,4.7769537E0,3.744629E0,0E0,7.8472805E-1,5.87064E0,0E0,2.1685486E0,2.427811E0,0E0,1.5313511E0,6.2545025E-1,0E0,2.3071823E0,0E0,1.748655E0,8.329201E-1,0E0,0E0,0E0,0E0,7.350311E-1,3.170901E0,4.380796E-1,0E0,0E0,0E0,0E0,0E0,0E0,0E0,0E0],"parents":[2147483647,0,0,1,1,2,2,3,3,5,5,6,6,8,8,9,9,11,11,12,12,14,14,16,16,17,17,22,22,23,23,24,24],"right_children":[2,4,6,8,-1,10,12,-1,14,16,-1,18,20,-1,22,-1,24,26,-1,-1,-1,-1,28,30,32,-1,-1,-1,-1,-1,-1,-1,-1],"split_conditions":[7.9893544E-2,3.784817E-3,1.4055586E-1,2.0576707E3,-1.2254403E-1,8.0975175E5,5.6553174E3,-1.08206466E-1,4.6408807E2,3.399508E-1,-1.5371655E-1,1.4191843E-3,2.0640927E5,-8.515379E-2,-9.1340387E-1,-1.4862092E-1,1.4576149E-3,4.1089082E-1,-4.9725818E-3,-1.4496687E-1,5.7060745E-2,-8.624498E-2,1.6922045E6,1.4873074E3,1.9420286E3,7.976151E-2,3.7717113E-1,3.1014514E-1,3.802812E-2,4.4680026E-1,-9.100742E-2,6.460939E-2,-1.1846225E-1],"split_indices":[1,11,10,4,0,9,8,0,14,0,0,3,7,0,13,0,3,0,0,0,0,0,9,14,6,0,0,0,0,0,0,0,0],"split_type":[0,0,0,0,0,0,0,0,0,0,0,0,0,0,0,0,0,0,0,0,0,0,0,0,0,0,0,0,0,0,0,0,0],"sum_hessian":[1.3172844E2,3.9614494E1,9.2113945E1,3.6875187E1,2.7393048E0,7.619549E1,1.5918457E1,1.9499043E0,3.492528E1,1.795593E1,5.823956E1,7.1080737E0,8.810383E0,1.0460515E0,3.387923E1,1.2010676E1,5.9452534E0,5.2156763E0,1.8923974E0,7.725865E0,1.0845183E0,1.0314347E0,3.2847797E1,2.4945524E0,3.450701E0,1.867087E0,3.3485892E0,3.162044E1,1.2273573E0,1.2267976E0,1.2677549E0,1.0163983E0,2.4343028E0],"tree_param":{"num_deleted":"0","num_feature":"15","num_nodes":"33","size_leaf_vector":"0"}},{"base_weights":[-2.1254134E-3,-4.4442E-1,6.141256E-1,-4.9150708E-1,2.3731224E-1,-1.727893E-1,8.621682E-1,-5.2876014E-1,-3.309043E-1,-3.230838E-1,5.148945E-1,7.806835E-1,-4.2581028E-1,-3.755601E-1,9.308952E-1,6.692404E-1,-4.431301E-1,1.1623007E0,-6.2367592E-2,1.0562115E0,1.4316733E-1,-5.002726E-1,1.650696E-1,1.3498024E0,6.968146E-1,-5.028868E-1,7.098942E-2,-2.9127112E-1,2.1201977E-1,-2.561461E-1,8.675142E-1,2.1275173E-1,-4.2548406E-1,7.1963936E-2,9.786617E-1],"categories":[],"categories_nodes":[],"categories_segments":[],"categories_sizes":[],"default_left":[1,1,1,1,1,1,1,0,1,0,1,1,1,0,1,0,1,0,1,0,0,0,0,0,1,0,0,0,0,1,1,0,0,0,0],"id":27,"left_children":[1,3,5,7,9,11,13,-1,15,-1,17,19,21,-1,23,-1,25,-1,27,-1,-1,-1,-1,-1,29,-1,-1,-1,-1,31,33,-1,-1,-1,-1],"loss_changes":[3.6584526E1,2.6249208E0,1.1095982E1,2.6426888E-1,1.0565478E0,3.7761185E0,3.9912434E0,0E0,2.1480281E0,0E0,1.6468225E0,4.3661237E-1,6.07389E-1,0E0,3.0646477E0,0E0,5.098257E-1,0E0,2.612339E-1,0E0,0E0,0E0,0E0,0E0,4.8209457E0,0E0,0E0,0E0,0E0,4.928294E-1,2.0697403E0,0E0,0E0,0E0,0E0],"parents":[2147483647,0,0,1,1,2,2,3,3,4,4,5,5,6,6,8,8,10,10,11,11,12,12,14,14,16,16,18,18,24,24,29,29,30,30],"right_children":[2,4,6,8,10,12,14,-1,16,-1,18,20,22,-1,24,-1,26,-1,28,-1,-1,-1,-1,-1,30,-1,-1,-1,-1,32,34,-1,-1,-1,-1],"split_conditions":[2.5577983E3,3.0969412E5,2.235204E-3,2.2909077E3,1.8180848E3,2.2776597E3,1.374698E-1,-1.5862805E-1,2.3020781E3,-9.692514E-2,1.9999224E3,8.655016E-2,7.874979E-3,-1.1266804E-1,3.915356E-1,2.0077214E-1,5.839942E-3,3.486902E-1,2.4295205E3,3.1686345E-1,4.29502E-2,-1.5008178E-1,4.952088E-2,4.0494072E-1,1.11751065E-1,-1.5086603E-1,2.1296827E-2,-8.738134E-2,6.3605934E-2,8.4562376E-2,2.879376E3,6.3825525E-2,-1.2764522E-1,2.1589182E-2,2.9359853E-1],"split_indices":[6,7,3,6,4,4,2,0,6,0,4,1,11,0,0,0,3,0,6,0,0,0,0,0,10,0,0,0,0,1,6,0,0,0,0],"split_type":[0,0,0,0,0,0,0,0,0,0,0,0,0,0,0,0,0,0,0,0,0,0,0,0,0,0,0,0,0,0,0,0,0,0,0],"sum_hessian":[1.3222205E2,7.713772E1,5.508432E1,7.241506E1,4.7226567E0,1.3274467E1,4.1809853E1,5.691975E1,1.5495312E1,1.5100919E0,3.2125647E0,2.3465154E0,1.0927952E1,1.9645791E0,3.9845272E1,1.0625589E0,1.4432753E1,1.0365691E0,2.1759958E0,1.1798402E0,1.1666752E0,9.841124E0,1.0868285E0,1.2574943E1,2.727033E1,1.29494705E1,1.4832823E0,1.1527767E0,1.0232191E0,4.0666986E0,2.320363E1,1.0109628E0,3.0557358E0,3.0463703E0,2.015726E1],"tree_param":{"num_deleted":"0","num_feature":"15","num_nodes":"35","size_leaf_vector":"0"}},{"base_weights":[4.7433116E-3,-3.549678E-1,3.37829E-1,-4.4939128E-1,-2.7798954E-2,-1.0936596E-1,5.4201025E-1,-5.242257E-1,-8.274686E-2,-4.7625422E-1,3.9197928E-1,7.261925E-1,-2.1189488E-1,7.456065E-2,8.56578E-1,4.7687513E-1,-3.3231845E-1,8.395174E-1,-2.0766851E-1,-4.9267504E-1,5.82218E-2,4.9140576E-1,-3.2104298E-1,-3.2653904E-1,9.3249553E-1,-3.1372413E-1,1.1060357E0,-4.5162642E-1,2.04369E-1,1.1350418E0,2.518728E-1,1.7034572E-1,-3.877654E-1,7.636464E-1,-1.3290122E-1,-3.4668586E-1,6.7758256E-1,-4.831911E-1,1.396584E-1,-3.1142598E-3,9.997319E-1,2.684536E-1,-3.4845734E-1,9.565097E-1,-8.504176E-2,-3.3525372E-1,6.819199E-1,4.380885E-1,1.126272E0],"categories":[],"categories_nodes":[],"categories_segments":[],"categories_sizes":[],"default_left":[1,1,1,1,1,1,1,0,1,0,1,0,1,1,1,1,1,1,1,0,1,1,1,0,1,0,0,0,0,0,0,0,0,0,1,0,1,0,1,0,1,0,0,0,0,0,0,0,0],"id":28,"left_children":[1,3,5,7,9,11,13,-1,15,-1,17,-1,19,21,23,25,27,29,31,-1,33,35,37,-1,39,-1,-1,-1,-1,-1,-1,-1,-1,-1,41,-1,43,-1,45,-1,47,-1,-1,-1,-1,-1,-1,-1,-1],"loss_changes":[1.6185019E1,1.99405E0,6.462799E0,1.3378134E0,3.12591E0,2.108435E0,7.0406103E0,0E0,1.5160776E0,0E0,2.485777E0,0E0,1.6286594E0,3.5433009E0,2.8899403E0,2.0424936E0,5.6047684E-1,6.050706E-1,3.712297E-1,0E0,1.6716866E0,1.8563843E0,8.995348E-1,0E0,1.7210159E0,0E0,0E0,0E0,0E0,0E0,0E0,0E0,0E0,0E0,9.6002185E-1,0E0,1.9620676E0,0E0,1.1751405E0,0E0,1.317522E0,0E0,0E0,0E0,0E0,0E0,0E0,0E0,0E0],"parents":[2147483647,0,0,1,1,2,2,3,3,4,4,5,5,6,6,8,8,10,10,12,12,13,13,14,14,15,15,16,16,17,17,18,18,20,20,21,21,22,22,24,24,34,34,36,36,38,38,40,40],"right_children":[2,4,6,8,10,12,14,-1,16,-1,18,-1,20,22,24,26,28,30,32,-1,34,36,38,-1,40,-1,-1,-1,-1,-1,-1,-1,-1,-1,42,-1,44,-1,46,-1,48,-1,-1,-1,-1,-1,-1,-1,-1],"split_conditions":[1.3059609E5,1.3977693E2,3.6186573E-1,4.147175E-3,1.6899048E-3,1.347541E5,1.2025035E2,-1.5726772E-1,1.7411013E-3,-1.4287627E-1,2.6652538E-3,2.1785775E-1,3.2236424E-1,8.284561E-1,7.875557E2,1.0242844E-1,1.9137659E3,1.23046435E-1,2.929277E5,-1.4780252E-1,3.2735032E-1,1.2413503E-3,5.0016584E0,-9.796172E-2,1.298218E-3,-9.411725E-2,3.318107E-1,-1.3548793E-1,6.13107E-2,3.4051257E-1,7.5561844E-2,5.110372E-2,-1.16329625E-1,2.2909394E-1,2.0277872E3,-1.0400576E-1,4.0567545E-3,-1.4495733E-1,1.1246521E3,-9.3427795E-4,1.2873435E3,8.053608E-2,-1.04537204E-1,2.869529E-1,-2.551253E-2,-1.0057612E-1,2.0457597E-1,1.3142656E-1,3.378816E-1],"split_indices":[7,12,0,11,3,7,12,0,3,0,3,0,0,13,14,2,14,2,5,0,0,3,13,0,3,0,0,0,0,0,0,0,0,0,6,0,3,0,14,0,14,0,0,0,0,0,0,0,0],"split_type":[0,0,0,0,0,0,0,0,0,0,0,0,0,0,0,0,0,0,0,0,0,0,0,0,0,0,0,0,0,0,0,0,0,0,0,0,0,0,0,0,0,0,0,0,0,0,0,0,0],"sum_hessian":[1.3308296E2,6.395259E1,6.913038E1,4.9339306E1,1.4613284E1,2.181526E1,4.731512E1,4.0618935E1,8.720373E0,7.0002627E0,7.6130214E0,1.7194896E0,2.009577E1,1.9530182E1,2.7784939E1,2.4086373E0,6.311736E0,4.130367E0,3.4826548E0,9.4494E0,1.064637E1,9.391865E0,1.0138316E1,1.4763238E0,2.6308615E1,1.2895534E0,1.1190839E0,5.2934675E0,1.0182682E0,2.128461E0,2.001906E0,1.1412897E0,2.341365E0,1.6309707E0,9.015399E0,1.5504122E0,7.841452E0,7.462873E0,2.6754436E0,1.8278146E0,2.44808E1,3.0643437E0,5.9510555E0,5.555363E0,2.286089E0,1.6298082E0,1.0456355E0,5.3218822E0,1.9158918E1],"tree_param":{"num_deleted":"0","num_feature":"15","num_nodes":"49","size_leaf_vector":"0"}},{"base_weights":[3.322737E-4,1.4984608E-1,-2.7096146E-1,-5.067852E-1,2.973046E-1,2.8600604E-3,-4.3308377E-1,1.5629967E-1,7.094358E-1,5.2862537E-1,-3.3650663E-1,-4.618665E-1,1.8963753E-1,4.4422334E-1,-7.6076955E-2,1.1935241E0,-1.08680815E-1,8.549755E-1,-3.628422E-1,-4.824851E-1,3.2449234E-2,6.7530476E-2,-4.927001E-1,6.363839E-1,-4.320928E-1,1.6811629E-1,-3.3293065E-1,1.3622795E0,-2.7944544E-1,-3.3727595E-1,6.785719E-1,1.1971673E0,-2.9628274E-1,4.8603567E-1,-3.582897E-1,8.991541E-3,-5.2650064E-1,2.4900739E-1,1.2190433E0,-3.3588657E-1,4.181195E-1,-4.36484E-1,1.2922056E-1,4.705057E-1,1.7047759E0,-4.5984268E-1,1.342202E-1,3.3233408E-2,1.7640526E0],"categories":[],"categories_nodes":[],"categories_segments":[],"categories_sizes":[],"default_left":[1,1,1,0,1,1,1,1,1,1,1,1,0,1,1,1,1,1,0,0,1,0,1,1,0,1,1,1,0,1,0,1,0,0,0,0,0,0,0,0,0,0,0,0,0,0,0,0,0],"id":29,"left_children":[1,3,5,-1,7,9,11,13,15,17,19,21,-1,23,25,27,29,31,-1,-1,33,-1,35,37,-1,39,41,43,-1,45,-1,47,-1,-1,-1,-1,-1,-1,-1,-1,-1,-1,-1,-1,-1,-1,-1,-1,-1],"loss_changes":[5.498293E0,8.61217E0,2.139294E0,0E0,4.072825E0,3.5509598E0,6.299195E-1,3.708538E0,7.2861204E0,2.5808349E0,6.6734815E-1,5.101104E-1,0E0,4.4302692E0,2.0158598E0,3.2233334E0,1.6026841E0,2.7227845E0,0E0,0E0,9.481497E-1,0E0,4.7488022E-1,4.355665E0,0E0,2.2425225E0,8.012723E-1,2.3837185E0,0E0,4.4221133E-1,0E0,3.1297321E0,0E0,0E0,0E0,0E0,0E0,0E0,0E0,0E0,0E0,0E0,0E0,0E0,0E0,0E0,0E0,0E0,0E0],"parents":[2147483647,0,0,1,1,2,2,4,4,5,5,6,6,7,7,8,8,9,9,10,10,11,11,13,13,14,14,15,15,16,16,17,17,20,20,22,22,23,23,25,25,26,26,27,27,29,29,31,31],"right_children":[2,4,6,-1,8,10,12,14,16,18,20,22,-1,24,26,28,30,32,-1,-1,34,-1,36,38,-1,40,42,44,-1,46,-1,48,-1,-1,-1,-1,-1,-1,-1,-1,-1,-1,-1,-1,-1,-1,-1,-1,-1],"split_conditions":[2.3176954E-3,2.932683E3,9.1137335E-2,-1.5203556E-1,1.4417037E-1,8.936934E-2,2.3331587E3,8.8252313E-4,1.915732E-1,2.0361198E3,9.694037E-2,9.069403E1,5.689126E-2,1.5120915E-1,1.859727E3,1.4777689E2,1.2331852E3,2.5364229E3,-1.0885266E-1,-1.4474553E-1,9.8712E-2,2.0259144E-2,4.7004987E2,3.905318E5,-1.2962784E-1,1.2872221E-3,8.033285E5,1.990628E5,-8.3833635E-2,2.3012767E-3,2.0357157E-1,1.0346263E-3,-8.888482E-2,1.4581071E-1,-1.0748691E-1,2.6974624E-3,-1.579502E-1,7.470222E-2,3.65713E-1,-1.0076597E-1,1.2543586E-1,-1.309452E-1,3.8766168E-2,1.4115173E-1,5.114328E-1,-1.379528E-1,4.026606E-2,9.970022E-3,5.292158E-1],"split_indices":[3,8,10,0,2,1,14,3,2,4,1,12,0,10,14,12,14,14,0,0,1,0,14,5,0,3,5,5,0,11,0,11,0,0,0,0,0,0,0,0,0,0,0,0,0,0,0,0,0],"split_type":[0,0,0,0,0,0,0,0,0,0,0,0,0,0,0,0,0,0,0,0,0,0,0,0,0,0,0,0,0,0,0,0,0,0,0,0,0,0,0,0,0,0,0,0,0,0,0,0,0],"sum_hessian":[1.3355128E2,8.638884E1,4.716245E1,1.53955965E1,7.099324E1,1.7904482E1,2.9257969E1,5.3923363E1,1.7069876E1,6.804656E0,1.1099825E1,2.821228E1,1.0456872E0,2.3676102E1,3.0247263E1,1.0435947E1,6.6339293E0,5.0111127E0,1.7935433E0,7.732668E0,3.367157E0,1.4872258E0,2.6725056E1,1.964262E1,4.033481E0,1.56828785E1,1.45643835E1,9.430643E0,1.0053041E0,5.58406E0,1.0498691E0,3.8321846E0,1.1789284E0,1.4453937E0,1.9217633E0,1.7332282E0,2.4991827E1,1.2655844E1,6.9867754E0,5.0860157E0,1.0596863E1,1.1943716E1,2.6206675E0,3.2755902E0,6.155053E0,4.451576E0,1.1324837E0,1.6018587E0,2.2303257E0],"tree_param":{"num_deleted":"0","num_feature":"15","num_nodes":"49","size_leaf_vector":"0"}},{"base_weights":[1.3688848E-2,1.686856E-1,-4.3043375E-1,-4.8760716E-2,5.247825E-1,3.6492684E-1,-4.8494273E-1,-4.549724E-1,1.3027799E-1,7.212852E-1,2.759098E-3,-1.9180825E-1,-5.133493E-1,-5.063212E-1,1.8518926E-1,5.0709945E-1,-1.7919454E-1,-3.2244194E-1,7.968289E-1,5.397488E-1,-3.4550926E-1,2.1386524E-1,-3.7637657E-1,-1.877436E-1,7.8377116E-1,3.382036E-1,-3.2812482E-1,4.774781E-1,9.333185E-1,7.8465585E-3,8.192751E-1,1.4676842E-1,-4.5188144E-1,-4.4629556E-1,4.2665786E-1,1.4432801E-1,1.2277408E0,5.868767E-1,-3.0364123E-1,-4.1231167E-1,3.6703098E-1,-3.5310906E-1,6.6302854E-1,1.0015775E0,2.1070848E-1],"categories":[],"categories_nodes":[],"categories_segments":[],"categories_sizes":[],"default_left":[1,1,1,1,1,0,1,1,1,1,1,1,0,0,0,1,1,0,1,1,1,0,0,1,1,1,1,1,1,0,0,0,0,0,0,0,0,0,0,0,0,0,0,0,0],"id":30,"left_children":[1,3,5,7,9,-1,11,13,15,17,19,21,-1,-1,-1,23,25,-1,27,29,31,-1,-1,33,35,37,39,41,43,-1,-1,-1,-1,-1,-1,-1,-1,-1,-1,-1,-1,-1,-1,-1,-1],"loss_changes":[8.78187E0,7.343375E0,1.6082239E0,4.3931932E0,3.682126E0,0E0,1.6237688E-1,7.003312E-1,5.00489E0,2.3139744E0,2.2111027E0,4.0724146E-1,0E0,0E0,0E0,3.850285E0,1.9507506E0,0E0,6.273365E-1,6.848295E-1,4.4212097E-1,0E0,0E0,1.1900041E0,3.7888708E0,1.108545E0,1.2660115E0,1.6856112E0,5.8792496E-1,0E0,0E0,0E0,0E0,0E0,0E0,0E0,0E0,0E0,0E0,0E0,0E0,0E0,0E0,0E0,0E0],"parents":[2147483647,0,0,1,1,2,2,3,3,4,4,6,6,7,7,8,8,9,9,10,10,11,11,15,15,16,16,18,18,19,19,20,20,23,23,24,24,25,25,26,26,27,27,28,28],"right_children":[2,4,6,8,10,-1,12,14,16,18,20,22,-1,-1,-1,24,26,-1,28,30,32,-1,-1,34,36,38,40,42,44,-1,-1,-1,-1,-1,-1,-1,-1,-1,-1,-1,-1,-1,-1,-1,-1],"split_conditions":[2.3757021E3,9.104329E-2,5.52093E5,1.7182814E3,1.6214033E3,1.0947806E-1,1.5996366E-3,9.056234E-2,1.918854E5,1.2659916E-3,1.3858229E6,8.339213E4,-1.540048E-1,-1.5189636E-1,5.555678E-2,1.1731888E-1,3.5761398E-1,-9.673259E-2,1.0449836E-3,4.6840005E3,-5.2669735E0,6.415957E-2,-1.12912975E-1,2.2804028E3,1.2065723E3,8.807713E-2,7.0410147E-3,9.4487275E5,2.4584703E5,2.3539676E-3,2.4578254E-1,4.403053E-2,-1.3556443E-1,-1.3388868E-1,1.2799737E-1,4.3298405E-2,3.6832225E-1,1.7606302E-1,-9.109237E-2,-1.236935E-1,1.101093E-1,-1.0593272E-1,1.9890857E-1,3.0047327E-1,6.321255E-2],"split_indices":[6,1,9,4,4,0,11,1,5,3,9,7,0,0,0,2,0,0,11,8,13,0,0,6,14,1,3,9,7,0,0,0,0,0,0,0,0,0,0,0,0,0,0,0,0],"split_type":[0,0,0,0,0,0,0,0,0,0,0,0,0,0,0,0,0,0,0,0,0,0,0,0,0,0,0,0,0,0,0,0,0,0,0,0,0,0,0,0,0,0,0,0,0],"sum_hessian":[1.2551903E2,9.350603E1,3.2012997E1,5.8591125E1,3.4914906E1,1.687998E0,3.0324999E1,1.7452608E1,4.1138515E1,2.5089046E1,9.825859E0,3.3639383E0,2.696106E1,1.6350195E1,1.1024135E0,1.8262749E1,2.2875769E1,1.4727628E0,2.3616283E1,3.6492813E0,6.176578E0,1.0022665E0,2.361672E0,5.292472E0,1.2970276E1,4.828882E0,1.8046886E1,8.418176E0,1.5198107E1,1.6112853E0,2.0379958E0,1.0300175E0,5.1465607E0,3.9175153E0,1.3749565E0,5.8580675E0,7.1122084E0,3.542165E0,1.2867172E0,1.6460337E1,1.58655E0,1.3722923E0,7.0458837E0,1.353364E1,1.6644667E0],"tree_param":{"num_deleted":"0","num_feature":"15","num_nodes":"45","size_leaf_vector":"0"}},{"base_weights":[-1.1047124E-2,6.634838E-1,-4.166383E-1,7.384932E-1,-3.977652E-1,-4.3908395E-2,-4.9405402E-1,7.984743E-1,1.8824026E-2,6.613591E-1,-3.8996294E-1,-5.090625E-1,1.1386416E-1,8.1666535E-1,9.716802E-2,6.625742E-1,-3.8427198E-1,9.7624964E-1,-2.9054654E-1,-4.7481358E-1,1.8768881E-1,1.0028696E-1,-5.226211E-1,8.447303E-1,2.9180288E-1,2.7365622E-1,8.6109877E-1,6.7792255E-1,-3.152523E-1],"categories":[],"categories_nodes":[],"categories_segments":[],"categories_sizes":[],"default_left":[1,1,1,1,0,1,1,1,1,1,1,1,0,1,0,0,0,0,0,0,0,0,0,1,1,0,0,0,0],"id":31,"left_children":[1,3,5,7,-1,9,11,13,15,17,19,21,-1,23,-1,-1,-1,-1,-1,-1,-1,-1,-1,25,27,-1,-1,-1,-1],"loss_changes":[3.3528114E1,3.9575062E0,2.1861897E0,1.8556709E0,0E0,3.7374158E0,6.3513756E-1,4.306736E-1,1.3855284E0,1.801467E0,5.887197E-1,5.639763E-1,0E0,3.2551956E-1,0E0,0E0,0E0,0E0,0E0,0E0,0E0,0E0,0E0,1.03990555E-1,1.0338156E0,0E0,0E0,0E0,0E0],"parents":[2147483647,0,0,1,1,2,2,3,3,5,5,6,6,7,7,8,8,9,9,10,10,11,11,13,13,23,23,24,24],"right_children":[2,4,6,8,-1,10,12,14,16,18,20,22,-1,24,-1,-1,-1,-1,-1,-1,-1,-1,-1,26,28,-1,-1,-1,-1],"split_conditions":[-5.58197E0,4.8414825E5,3.195889E-1,9.0975046E-2,-1.19329564E-1,8.404185E-2,4.984033E3,2.4174172E-3,-1.0476132E1,4.657696E3,1.1261885E-1,8.637545E4,3.415925E-2,7.44679E-2,2.9150408E-2,1.9877227E-1,-1.152816E-1,2.928749E-1,-8.716396E-2,-1.4244407E-1,5.6306645E-2,3.0086089E-2,-1.5678634E-1,1.9884762E-1,1.4043944E5,8.209687E-2,2.5832963E-1,2.0337677E-1,-9.4575696E-2],"split_indices":[13,5,0,1,0,1,14,11,13,8,10,5,0,2,0,0,0,0,0,0,0,0,0,0,5,0,0,0,0],"split_type":[0,0,0,0,0,0,0,0,0,0,0,0,0,0,0,0,0,0,0,0,0,0,0,0,0,0,0,0,0],"sum_hessian":[1.2054112E2,4.5025024E1,7.55161E1,4.2336777E1,2.6882477E0,1.3256724E1,6.2259373E1,3.897859E1,3.3581884E0,4.0636888E0,9.193036E0,6.0918022E1,1.3413515E0,3.783276E1,1.1458294E0,1.0452292E0,2.3129592E0,3.0343506E0,1.0293379E0,8.1708555E0,1.0221802E0,1.1867489E0,5.9731274E1,3.5333984E1,2.4987762E0,1.4782509E0,3.3855732E1,1.4559648E0,1.0428113E0],"tree_param":{"num_deleted":"0","num_feature":"15","num_nodes":"29","size_leaf_vector":"0"}},{"base_weights":[5.6680175E-3,1.7714655E-1,-3.640895E-1,-4.771707E-1,2.535978E-1,4.9790418E-1,-4.4285142E-1,3.5435277E-1,-2.8821236E-1,9.594683E-1,-3.096684E-1,-4.6522877E-1,9.649653E-2,6.717701E-1,1.8534812E-1,5.036139E-2,-4.762267E-1,-1.905584E-1,-5.129307E-1,-3.6202133E-1,7.793462E-1,4.423749E-1,-1.875514E-1,-4.01239E-1,6.815153E-1,2.3782985E-1,-4.309554E-1,9.379678E-1,6.747264E-2,-2.9935518E-1,5.858759E-1,-3.2199234E-2,-5.130261E-1,6.993343E-1,-2.9317445E-1],"categories":[],"categories_nodes":[],"categories_segments":[],"categories_sizes":[],"default_left":[1,1,1,0,1,1,1,1,1,0,0,1,0,1,1,1,0,1,0,0,1,1,1,0,0,1,0,0,0,0,0,0,0,0,0],"id":32,"left_children":[1,3,5,-1,7,9,11,13,15,-1,-1,17,-1,19,21,23,-1,25,-1,-1,27,29,31,-1,-1,33,-1,-1,-1,-1,-1,-1,-1,-1,-1],"loss_changes":[8.390133E0,4.642049E0,3.0671701E0,0E0,4.5553885E0,1.7810729E0,5.149646E-1,3.5895262E0,8.733381E-1,0E0,0E0,3.9448833E-1,0E0,2.9149332E0,4.545502E0,1.8890787E0,0E0,8.388405E-1,0E0,0E0,2.3937836E0,3.1407652E0,9.795718E-1,0E0,0E0,9.9278295E-1,0E0,0E0,0E0,0E0,0E0,0E0,0E0,0E0,0E0],"parents":[2147483647,0,0,1,1,2,2,4,4,5,5,6,6,7,7,8,8,11,11,13,13,14,14,15,15,17,17,20,20,21,21,22,22,25,25],"right_children":[2,4,6,-1,8,10,12,14,16,-1,-1,18,-1,20,22,24,-1,26,-1,-1,28,30,32,-1,-1,34,-1,-1,-1,-1,-1,-1,-1,-1,-1],"split_conditions":[3.9230096E-1,5.6430775E5,3.8077667E2,-1.4315122E-1,9.335005E-2,4.3219444E-1,2.1148866E-1,6.851496E-2,3.01566E-1,2.8784052E-1,-9.290052E-2,4.0341753E-1,2.894896E-2,-8.679992E0,8.668323E-2,2.816519E-1,-1.4286801E-1,1.3131218E3,-1.5387921E-1,-1.08606406E-1,3.5728776E-1,3.12737E-1,1.6149625E5,-1.2037171E-1,2.0445459E-1,1.9693128E-3,-1.2928663E-1,2.8139034E-1,2.0241791E-2,-8.980656E-2,1.7576279E-1,-9.659771E-3,-1.5390784E-1,2.098003E-1,-8.795234E-2],"split_indices":[0,9,14,0,1,0,10,10,0,0,0,0,0,13,1,0,0,14,0,0,0,0,7,0,0,3,0,0,0,0,0,0,0,0,0],"split_type":[0,0,0,0,0,0,0,0,0,0,0,0,0,0,0,0,0,0,0,0,0,0,0,0,0,0,0,0,0,0,0,0,0,0,0],"sum_hessian":[1.3030782E2,8.937857E1,4.092925E1,8.802217E0,8.0576355E1,2.98114E0,3.794811E1,6.823362E1,1.2342736E1,1.7772641E0,1.2038758E0,3.6568325E1,1.3797835E0,2.26738E1,4.555982E1,4.668287E0,7.6744494E0,6.1501584E0,3.0418165E1,1.9141197E0,2.075968E1,2.6859901E1,1.8699917E1,2.9335577E0,1.7347289E0,2.2145324E0,3.9356258E0,1.6717121E1,4.042558E0,4.1780825E0,2.268182E1,1.3401963E1,5.2979536E0,1.0152013E0,1.199331E0],"tree_param":{"num_deleted":"0","num_feature":"15","num_nodes":"35","size_leaf_vector":"0"}},{"base_weights":[7.7806967E-3,-4.3926755E-1,1.7272311E-1,-5.12795E-1,-1.450994E-1,-3.6153194E-1,2.5849387E-1,5.246242E-1,-3.4079713E-1,-8.808373E-4,-4.9027765E-1,3.9658093E-1,-2.0287986E-1,1.6049446E-1,-4.5386687E-1,-3.8140357E-1,5.5219525E-1,4.8585415E-1,-3.4364507E-1,2.373105E-1,-3.851183E-1,-2.0940208E-1,5.6572235E-1,2.1008635E-1,-4.631418E-1,-3.6903122E-1,6.4372027E-1,-4.4251275E-1,1.8586737E-1,-4.6883795E-1,5.9469E-1,-7.820599E-2,6.454526E-1,9.0160245E-1,4.494106E-2,2.0666605E-2,-5.0357556E-1],"categories":[],"categories_nodes":[],"categories_segments":[],"categories_sizes":[],"default_left":[1,1,1,0,1,1,1,0,1,1,0,1,1,0,0,0,0,1,1,1,1,1,1,0,0,0,1,1,0,0,0,0,0,0,0,0,0],"id":33,"left_children":[1,3,5,-1,7,9,11,-1,13,15,-1,17,19,-1,-1,-1,-1,21,23,25,27,29,31,-1,-1,-1,33,35,-1,-1,-1,-1,-1,-1,-1,-1,-1],"loss_changes":[9.845086E0,7.040329E-1,4.5611076E0,0E0,1.3048131E0,6.451663E-1,5.4698553E0,0E0,4.840554E-1,1.1912489E0,0E0,4.4917374E0,1.7076359E0,0E0,0E0,0E0,0E0,3.3844538E0,6.021127E-1,1.8436679E0,5.6169534E-1,1.6953218E0,2.7728615E0,0E0,0E0,0E0,6.183038E-1,3.9476085E-1,0E0,0E0,0E0,0E0,0E0,0E0,0E0,0E0,0E0],"parents":[2147483647,0,0,1,1,2,2,4,4,5,5,6,6,8,8,9,9,11,11,12,12,17,17,18,18,19,19,20,20,21,21,22,22,26,26,27,27],"right_children":[2,4,6,-1,8,10,12,-1,14,16,-1,18,20,-1,-1,-1,-1,22,24,26,28,30,32,-1,-1,-1,34,36,-1,-1,-1,-1,-1,-1,-1,-1,-1],"split_conditions":[4.161412E3,3.8016177E3,8.3718356E-4,-1.538385E-1,1.7771901E3,-2.0468745E0,1.9066232E-1,1.5738727E-1,3.8280764E3,3.6903518E-1,-1.470833E-1,1.3977693E2,3.05556E-3,4.814834E-2,-1.3616006E-1,-1.1442108E-1,1.6565858E-1,9.754357E1,4.408299E3,3.166739E5,7.133191E0,3.0774219E3,7.081296E5,6.302591E-2,-1.3894254E-1,-1.1070937E-1,5.881162E3,2.2118254E3,5.5760212E-2,-1.4065139E-1,1.7840701E-1,-2.3461798E-2,1.9363579E-1,2.7048075E-1,1.3482318E-2,6.1999816E-3,-1.5107268E-1],"split_indices":[8,8,3,0,4,13,2,0,8,0,0,12,3,0,0,0,0,12,8,5,13,4,9,0,0,0,8,6,0,0,0,0,0,0,0,0,0],"split_type":[0,0,0,0,0,0,0,0,0,0,0,0,0,0,0,0,0,0,0,0,0,0,0,0,0,0,0,0,0,0,0,0,0,0,0,0,0],"sum_hessian":[1.314869E2,3.4989815E1,9.649707E1,2.7398378E1,7.5914364E0,1.2904085E1,8.359299E1,1.3365747E0,6.254862E0,3.6595492E0,9.244535E0,6.444525E1,1.9147736E1,1.0739789E0,5.180883E0,2.3518472E0,1.3077022E0,5.7816116E1,6.629135E0,5.5177097E0,1.3630026E1,5.7902126E0,5.20259E1,1.0420989E0,5.587036E0,2.2511246E0,3.2665854E0,1.2589549E1,1.0404762E0,4.692983E0,1.0972298E0,5.734147E0,4.6291756E1,1.9297473E0,1.336838E0,1.5434656E0,1.1046083E1],"tree_param":{"num_deleted":"0","num_feature":"15","num_nodes":"37","size_leaf_vector":"0"}},{"base_weights":[-1.3069675E-2,-4.416043E-1,2.668997E-1,-4.775815E-1,1.2566516E-1,5.3563976E-1,-8.698498E-2,-4.9777094E-1,2.0891537E-1,6.926258E-1,-3.4345087E-1,7.578524E-1,1.0380252E-1,-3.3765128E-1,3.3065835E-1,-1.5163863E-1,-5.188029E-1,3.3053234E-1,9.1133976E-1,-4.290369E-1,2.798293E-1,-5.004127E-1,-1.3741263E-2,4.5326093E-1,-3.7025E-1,2.2178693E-1,-3.5492086E-1,7.119767E-1,-2.3824905E-1,5.211849E-1,-3.9563107E-1,-4.0786833E-1,3.2447538E-1,-5.8886044E-2,7.204804E-1,8.664786E-1,6.599079E-2,-4.0111163E-1,1.5301645E-1,-3.2983565E-1,7.205981E-1,-3.5496143E-1,8.432158E-1,5.90955E-1,-4.027583E-1,-5.7878694E-3,8.79745E-1],"categories":[],"categories_nodes":[],"categories_segments":[],"categories_sizes":[],"default_left":[1,1,1,1,1,1,1,1,0,0,0,1,1,1,1,1,0,1,0,0,1,0,1,1,0,0,0,1,1,1,0,0,1,1,1,0,0,0,0,0,0,0,0,0,0,0,0],"id":34,"left_children":[1,3,5,7,9,11,13,15,-1,-1,-1,17,19,21,23,25,-1,27,-1,-1,29,-1,31,33,-1,-1,-1,35,37,39,-1,-1,41,43,45,-1,-1,-1,-1,-1,-1,-1,-1,-1,-1,-1,-1],"loss_changes":[1.4813308E1,1.0555086E0,7.151567E0,7.426176E-1,1.222174E0,4.00941E0,3.5775042E0,2.4933052E-1,0E0,0E0,0E0,1.5332336E0,1.5863098E0,1.1099267E0,1.2782943E0,3.8189805E-1,0E0,2.1136672E0,0E0,0E0,2.2205486E0,0E0,1.213789E0,1.6091845E0,0E0,0E0,0E0,5.0315285E-1,3.38328E-1,1.8557727E0,0E0,0E0,2.0344436E0,1.3217325E0,8.840108E-1,0E0,0E0,0E0,0E0,0E0,0E0,0E0,0E0,0E0,0E0,0E0,0E0],"parents":[2147483647,0,0,1,1,2,2,3,3,4,4,5,5,6,6,7,7,11,11,12,12,13,13,14,14,15,15,17,17,20,20,22,22,23,23,27,27,28,28,29,29,32,32,33,33,34,34],"right_children":[2,4,6,8,10,12,14,16,-1,-1,-1,18,20,22,24,26,-1,28,-1,-1,30,-1,32,34,-1,-1,-1,36,38,40,-1,-1,42,44,46,-1,-1,-1,-1,-1,-1,-1,-1,-1,-1,-1,-1],"split_conditions":[3.9043215E-1,4.509183E0,1.1490049E2,4.4387125E5,2.1023515E-1,1.2663648E-1,3.917457E-3,1.0011304E3,6.267461E-2,2.0778775E-1,-1.0303526E-1,2.6059127E-3,5.4086934E3,4.5896912E-1,4.2574545E6,2.8545554E3,-1.5564087E-1,8.322628E-2,2.7340195E-1,-1.2871107E-1,3.0056396E3,-1.5012382E-1,1.2318633E3,1.1422683E3,-1.11075E-1,6.6536084E-2,-1.0647626E-1,2.1217954E3,2.2541553E3,2.7987617E-3,-1.1868933E-1,-1.22360505E-1,1.0591024E-1,9.7727516E4,1.0158695E5,2.599436E-1,1.9797238E-2,-1.2033349E-1,4.5904934E-2,-9.89507E-2,2.1617945E-1,-1.0648843E-1,2.5296476E-1,1.772865E-1,-1.20827496E-1,-1.736361E-3,2.6392353E-1],"split_indices":[0,13,12,7,2,10,3,14,0,0,0,11,8,0,9,4,0,10,0,0,6,0,14,14,0,0,0,14,4,11,0,0,2,7,7,0,0,0,0,0,0,0,0,0,0,0,0],"split_type":[0,0,0,0,0,0,0,0,0,0,0,0,0,0,0,0,0,0,0,0,0,0,0,0,0,0,0,0,0,0,0,0,0,0,0,0,0,0,0,0,0,0,0,0,0,0,0],"sum_hessian":[1.2148594E2,4.7777725E1,7.370821E1,4.5076973E1,2.700755E0,4.160203E1,3.2106186E1,4.4056217E1,1.0207536E0,1.007124E0,1.693631E0,2.6969337E1,1.4632692E1,2.0183647E1,1.1922537E1,2.993915E0,4.10623E1,7.960422E0,1.9008917E1,3.276691E0,1.1356002E1,1.3070796E1,7.112851E0,1.04482565E1,1.4742808E0,1.0232307E0,1.9706845E0,4.6142135E0,3.3462086E0,8.5347595E0,2.8212419E0,3.189804E0,3.9230468E0,3.849679E0,6.5985775E0,3.448178E0,1.1660357E0,2.3449628E0,1.0012456E0,1.4960686E0,7.038691E0,1.8351393E0,2.0879076E0,1.0835268E0,